{"learner":{"attributes":{"scikit_learn":"{\"n_estimators\": 200, \"objective\": \"reg:squarederror\", \"max_depth\": 4, \"learning_rate\": 0.01, \"verbosity\": null, \"booster\": null, \"tree_method\": null, \"gamma\": 0.01, \"min_child_weight\": null, \"max_delta_step\": null, \"subsample\": null, \"colsample_bytree\": null, \"colsample_bylevel\": null, \"colsample_bynode\": null, \"reg_alpha\": null, \"reg_lambda\": null, \"scale_pos_weight\": null, \"base_score\": null, \"missing\": NaN, \"num_parallel_tree\": null, \"kwargs\": {}, \"random_state\": 42, \"n_jobs\": null, \"monotone_constraints\": null, \"interaction_constraints\": null, \"importance_type\": \"gain\", \"gpu_id\": null, \"validate_parameters\": null, \"type\": \"XGBRegressor\"}"},"gradient_booster":{"model":{"gbtree_model_param":{"num_trees":"200","size_leaf_vector":"0"},"tree_info":[0,0,0,0,0,0,0,0,0,0,0,0,0,0,0,0,0,0,0,0,0,0,0,0,0,0,0,0,0,0,0,0,0,0,0,0,0,0,0,0,0,0,0,0,0,0,0,0,0,0,0,0,0,0,0,0,0,0,0,0,0,0,0,0,0,0,0,0,0,0,0,0,0,0,0,0,0,0,0,0,0,0,0,0,0,0,0,0,0,0,0,0,0,0,0,0,0,0,0,0,0,0,0,0,0,0,0,0,0,0,0,0,0,0,0,0,0,0,0,0,0,0,0,0,0,0,0,0,0,0,0,0,0,0,0,0,0,0,0,0,0,0,0,0,0,0,0,0,0,0,0,0,0,0,0,0,0,0,0,0,0,0,0,0,0,0,0,0,0,0,0,0,0,0,0,0,0,0,0,0,0,0,0,0,0,0,0,0,0,0,0,0,0,0,0,0,0,0,0,0],"trees":[{"base_weights":[4.73448242187500000e+04,3.42850117187500000e+04,5.36734257812500000e+04],"default_left":[true,false,false],"id":0,"leaf_child_counts":[0,0,0],"left_children":[1,-1,-1],"loss_changes":[7.33398630400000000e+09,0.00000000000000000e+00,0.00000000000000000e+00],"parents":[2147483647,0,0],"right_children":[2,-1,-1],"split_conditions":[3.85000000000000000e+01,3.42850097656250000e+02,5.36734252929687500e+02],"split_indices":[12,0,0],"sum_hessian":[1.10000000000000000e+02,3.80000000000000000e+01,7.20000000000000000e+01],"tree_param":{"num_deleted":"0","num_feature":"15","num_nodes":"3","size_leaf_vector":"0"}},{"base_weights":[4.68793007812500000e+04,3.39509531250000000e+04,5.31440429687500000e+04],"default_left":[true,false,false],"id":1,"leaf_child_counts":[0,0,0],"left_children":[1,-1,-1],"loss_changes":[7.18590771200000000e+09,0.00000000000000000e+00,0.00000000000000000e+00],"parents":[2147483647,0,0],"right_children":[2,-1,-1],"split_conditions":[3.85000000000000000e+01,3.39509521484375000e+02,5.31440429687500000e+02],"split_indices":[12,0,0],"sum_hessian":[1.10000000000000000e+02,3.80000000000000000e+01,7.20000000000000000e+01],"tree_param":{"num_deleted":"0","num_feature":"15","num_nodes":"3","size_leaf_vector":"0"}},{"base_weights":[4.64183515625000000e+04,3.36201484375000000e+04,5.26198828125000000e+04],"default_left":[true,false,false],"id":2,"leaf_child_counts":[0,0,0],"left_children":[1,-1,-1],"loss_changes":[7.04081100800000000e+09,0.00000000000000000e+00,0.00000000000000000e+00],"parents":[2147483647,0,0],"right_children":[2,-1,-1],"split_conditions":[3.85000000000000000e+01,3.36201477050781250e+02,5.26198791503906250e+02],"split_indices":[12,0,0],"sum_hessian":[1.10000000000000000e+02,3.80000000000000000e+01,7.20000000000000000e+01],"tree_param":{"num_deleted":"0","num_feature":"15","num_nodes":"3","size_leaf_vector":"0"}},{"base_weights":[4.59619375000000000e+04,3.32925664062500000e+04,5.21008906250000000e+04],"default_left":[true,false,false],"id":3,"leaf_child_counts":[0,0,0],"left_children":[1,-1,-1],"loss_changes":[6.89863065600000000e+09,0.00000000000000000e+00,0.00000000000000000e+00],"parents":[2147483647,0,0],"right_children":[2,-1,-1],"split_conditions":[3.85000000000000000e+01,3.32925659179687500e+02,5.21008911132812500e+02],"split_indices":[12,0,0],"sum_hessian":[1.10000000000000000e+02,3.80000000000000000e+01,7.20000000000000000e+01],"tree_param":{"num_deleted":"0","num_feature":"15","num_nodes":"3","size_leaf_vector":"0"}},{"base_weights":[4.55100117187500000e+04,3.29681796875000000e+04,5.15870195312500000e+04],"default_left":[true,false,false],"id":4,"leaf_child_counts":[0,0,0],"left_children":[1,-1,-1],"loss_changes":[6.75933388800000000e+09,0.00000000000000000e+00,0.00000000000000000e+00],"parents":[2147483647,0,0],"right_children":[2,-1,-1],"split_conditions":[3.85000000000000000e+01,3.29681793212890625e+02,5.15870178222656250e+02],"split_indices":[12,0,0],"sum_hessian":[1.10000000000000000e+02,3.80000000000000000e+01,7.20000000000000000e+01],"tree_param":{"num_deleted":"0","num_feature":"15","num_nodes":"3","size_leaf_vector":"0"}},{"base_weights":[4.50625312500000000e+04,3.26469511718750000e+04,5.10782148437500000e+04],"default_left":[true,false,false],"id":5,"leaf_child_counts":[0,0,0],"left_children":[1,-1,-1],"loss_changes":[6.62283878400000000e+09,0.00000000000000000e+00,0.00000000000000000e+00],"parents":[2147483647,0,0],"right_children":[2,-1,-1],"split_conditions":[3.85000000000000000e+01,3.26469512939453125e+02,5.10782135009765625e+02],"split_indices":[12,0,0],"sum_hessian":[1.10000000000000000e+02,3.80000000000000000e+01,7.20000000000000000e+01],"tree_param":{"num_deleted":"0","num_feature":"15","num_nodes":"3","size_leaf_vector":"0"}},{"base_weights":[4.46194492187500000e+04,3.23288535156250000e+04,5.05744296875000000e+04],"default_left":[true,false,false],"id":6,"leaf_child_counts":[0,0,0],"left_children":[1,-1,-1],"loss_changes":[6.48911257600000000e+09,0.00000000000000000e+00,0.00000000000000000e+00],"parents":[2147483647,0,0],"right_children":[2,-1,-1],"split_conditions":[3.85000000000000000e+01,3.23288513183593750e+02,5.05744293212890625e+02],"split_indices":[12,0,0],"sum_hessian":[1.10000000000000000e+02,3.80000000000000000e+01,7.20000000000000000e+01],"tree_param":{"num_deleted":"0","num_feature":"15","num_nodes":"3","size_leaf_vector":"0"}},{"base_weights":[4.41807226562500000e+04,3.20138554687500000e+04,5.00756171875000000e+04],"default_left":[true,false,false],"id":7,"leaf_child_counts":[0,0,0],"left_children":[1,-1,-1],"loss_changes":[6.35807334400000000e+09,0.00000000000000000e+00,0.00000000000000000e+00],"parents":[2147483647,0,0],"right_children":[2,-1,-1],"split_conditions":[3.85000000000000000e+01,3.20138549804687500e+02,5.00756164550781250e+02],"split_indices":[12,0,0],"sum_hessian":[1.10000000000000000e+02,3.80000000000000000e+01,7.20000000000000000e+01],"tree_param":{"num_deleted":"0","num_feature":"15","num_nodes":"3","size_leaf_vector":"0"}},{"base_weights":[4.37463125000000000e+04,3.17019238281250000e+04,4.95817187500000000e+04],"default_left":[true,false,false],"id":8,"leaf_child_counts":[0,0,0],"left_children":[1,-1,-1],"loss_changes":[6.22965555200000000e+09,0.00000000000000000e+00,0.00000000000000000e+00],"parents":[2147483647,0,0],"right_children":[2,-1,-1],"split_conditions":[3.85000000000000000e+01,3.17019226074218750e+02,4.95817169189453125e+02],"split_indices":[12,0,0],"sum_hessian":[1.10000000000000000e+02,3.80000000000000000e+01,7.20000000000000000e+01],"tree_param":{"num_deleted":"0","num_feature":"15","num_nodes":"3","size_leaf_vector":"0"}},{"base_weights":[4.33161718750000000e+04,3.13930332031250000e+04,4.90926953125000000e+04],"default_left":[true,false,false],"id":9,"leaf_child_counts":[0,0,0],"left_children":[1,-1,-1],"loss_changes":[6.10387558400000000e+09,0.00000000000000000e+00,0.00000000000000000e+00],"parents":[2147483647,0,0],"right_children":[2,-1,-1],"split_conditions":[3.85000000000000000e+01,3.13930328369140625e+02,4.90926940917968750e+02],"split_indices":[12,0,0],"sum_hessian":[1.10000000000000000e+02,3.80000000000000000e+01,7.20000000000000000e+01],"tree_param":{"num_deleted":"0","num_feature":"15","num_nodes":"3","size_leaf_vector":"0"}},{"base_weights":[4.28902578125000000e+04,3.10871523437500000e+04,4.86084921875000000e+04],"default_left":[true,false,false],"id":10,"leaf_child_counts":[0,0,0],"left_children":[1,-1,-1],"loss_changes":[5.98060236800000000e+09,0.00000000000000000e+00,0.00000000000000000e+00],"parents":[2147483647,0,0],"right_children":[2,-1,-1],"split_conditions":[3.85000000000000000e+01,3.10871520996093750e+02,4.86084899902343750e+02],"split_indices":[12,0,0],"sum_hessian":[1.10000000000000000e+02,3.80000000000000000e+01,7.20000000000000000e+01],"tree_param":{"num_deleted":"0","num_feature":"15","num_nodes":"3","size_leaf_vector":"0"}},{"base_weights":[4.24685390625000000e+04,3.07842519531250000e+04,4.81290664062500000e+04],"default_left":[true,false,false],"id":11,"leaf_child_counts":[0,0,0],"left_children":[1,-1,-1],"loss_changes":[5.85983590400000000e+09,0.00000000000000000e+00,0.00000000000000000e+00],"parents":[2147483647,0,0],"right_children":[2,-1,-1],"split_conditions":[3.85000000000000000e+01,3.07842498779296875e+02,4.81290649414062500e+02],"split_indices":[12,0,0],"sum_hessian":[1.10000000000000000e+02,3.80000000000000000e+01,7.20000000000000000e+01],"tree_param":{"num_deleted":"0","num_feature":"15","num_nodes":"3","size_leaf_vector":"0"}},{"base_weights":[4.20509609375000000e+04,3.04843027343750000e+04,4.76543671875000000e+04],"default_left":[true,false,false],"id":12,"leaf_child_counts":[0,0,0],"left_children":[1,-1,-1],"loss_changes":[5.74151065600000000e+09,0.00000000000000000e+00,0.00000000000000000e+00],"parents":[2147483647,0,0],"right_children":[2,-1,-1],"split_conditions":[3.85000000000000000e+01,3.04843017578125000e+02,4.76543670654296875e+02],"split_indices":[12,0,0],"sum_hessian":[1.10000000000000000e+02,3.80000000000000000e+01,7.20000000000000000e+01],"tree_param":{"num_deleted":"0","num_feature":"15","num_nodes":"3","size_leaf_vector":"0"}},{"base_weights":[4.16374921875000000e+04,3.01872773437500000e+04,4.71843515625000000e+04],"default_left":[true,false,false],"id":13,"leaf_child_counts":[0,0,0],"left_children":[1,-1,-1],"loss_changes":[5.62554470400000000e+09,0.00000000000000000e+00,0.00000000000000000e+00],"parents":[2147483647,0,0],"right_children":[2,-1,-1],"split_conditions":[3.85000000000000000e+01,3.01872772216796875e+02,4.71843505859375000e+02],"split_indices":[12,0,0],"sum_hessian":[1.10000000000000000e+02,3.80000000000000000e+01,7.20000000000000000e+01],"tree_param":{"num_deleted":"0","num_feature":"15","num_nodes":"3","size_leaf_vector":"0"}},{"base_weights":[4.12280859375000000e+04,2.98931425781250000e+04,4.67189726562500000e+04],"default_left":[true,false,false],"id":14,"leaf_child_counts":[0,0,0],"left_children":[1,-1,-1],"loss_changes":[5.51195443200000000e+09,0.00000000000000000e+00,0.00000000000000000e+00],"parents":[2147483647,0,0],"right_children":[2,-1,-1],"split_conditions":[3.85000000000000000e+01,2.98931427001953125e+02,4.67189727783203125e+02],"split_indices":[12,0,0],"sum_hessian":[1.10000000000000000e+02,3.80000000000000000e+01,7.20000000000000000e+01],"tree_param":{"num_deleted":"0","num_feature":"15","num_nodes":"3","size_leaf_vector":"0"}},{"base_weights":[4.08227070312500000e+04,2.96018789062500000e+04,4.62581835937500000e+04],"default_left":[true,false,false],"id":15,"leaf_child_counts":[0,0,0],"left_children":[1,-1,-1],"loss_changes":[5.40062515200000000e+09,0.00000000000000000e+00,0.00000000000000000e+00],"parents":[2147483647,0,0],"right_children":[2,-1,-1],"split_conditions":[3.85000000000000000e+01,2.96018768310546875e+02,4.62581817626953125e+02],"split_indices":[12,0,0],"sum_hessian":[1.10000000000000000e+02,3.80000000000000000e+01,7.20000000000000000e+01],"tree_param":{"num_deleted":"0","num_feature":"15","num_nodes":"3","size_leaf_vector":"0"}},{"base_weights":[4.04213164062500000e+04,2.93134492187500000e+04,4.58019375000000000e+04],"default_left":[true,false,false],"id":16,"leaf_child_counts":[0,0,0],"left_children":[1,-1,-1],"loss_changes":[5.29154048000000000e+09,0.00000000000000000e+00,0.00000000000000000e+00],"parents":[2147483647,0,0],"right_children":[2,-1,-1],"split_conditions":[3.85000000000000000e+01,2.93134490966796875e+02,4.58019378662109375e+02],"split_indices":[12,0,0],"sum_hessian":[1.10000000000000000e+02,3.80000000000000000e+01,7.20000000000000000e+01],"tree_param":{"num_deleted":"0","num_feature":"15","num_nodes":"3","size_leaf_vector":"0"}},{"base_weights":[4.00238710937500000e+04,2.90278300781250000e+04,4.53501914062500000e+04],"default_left":[true,false,false],"id":17,"leaf_child_counts":[0,0,0],"left_children":[1,-1,-1],"loss_changes":[5.18466764800000000e+09,0.00000000000000000e+00,0.00000000000000000e+00],"parents":[2147483647,0,0],"right_children":[2,-1,-1],"split_conditions":[3.85000000000000000e+01,2.90278289794921875e+02,4.53501892089843750e+02],"split_indices":[12,0,0],"sum_hessian":[1.10000000000000000e+02,3.80000000000000000e+01,7.20000000000000000e+01],"tree_param":{"num_deleted":"0","num_feature":"15","num_nodes":"3","size_leaf_vector":"0"}},{"base_weights":[3.96303320312500000e+04,2.93361093750000000e+04,4.52407148437500000e+04],"default_left":[true,false,false],"id":18,"leaf_child_counts":[0,0,0],"left_children":[1,-1,-1],"loss_changes":[5.08357836800000000e+09,0.00000000000000000e+00,0.00000000000000000e+00],"parents":[2147483647,0,0],"right_children":[2,-1,-1],"split_conditions":[3.59653906250000000e+04,2.93361083984375000e+02,4.52407135009765625e+02],"split_indices":[3,0,0],"sum_hessian":[1.10000000000000000e+02,4.10000000000000000e+01,6.90000000000000000e+01],"tree_param":{"num_deleted":"0","num_feature":"15","num_nodes":"3","size_leaf_vector":"0"}},{"base_weights":[3.92407460937500000e+04,2.84591562500000000e+04,4.44632304687500000e+04],"default_left":[true,false,false],"id":19,"leaf_child_counts":[0,0,0],"left_children":[1,-1,-1],"loss_changes":[4.98465177600000000e+09,0.00000000000000000e+00,0.00000000000000000e+00],"parents":[2147483647,0,0],"right_children":[2,-1,-1],"split_conditions":[3.85000000000000000e+01,2.84591552734375000e+02,4.44632293701171875e+02],"split_indices":[12,0,0],"sum_hessian":[1.10000000000000000e+02,3.80000000000000000e+01,7.20000000000000000e+01],"tree_param":{"num_deleted":"0","num_feature":"15","num_nodes":"3","size_leaf_vector":"0"}},{"base_weights":[3.88549062500000000e+04,2.87604863281250000e+04,4.43564882812500000e+04],"default_left":[true,false,false],"id":20,"leaf_child_counts":[0,0,0],"left_children":[1,-1,-1],"loss_changes":[4.88870707200000000e+09,0.00000000000000000e+00,0.00000000000000000e+00],"parents":[2147483647,0,0],"right_children":[2,-1,-1],"split_conditions":[3.59653906250000000e+04,2.87604858398437500e+02,4.43564880371093750e+02],"split_indices":[3,0,0],"sum_hessian":[1.10000000000000000e+02,4.10000000000000000e+01,6.90000000000000000e+01],"tree_param":{"num_deleted":"0","num_feature":"15","num_nodes":"3","size_leaf_vector":"0"}},{"base_weights":[3.84729453125000000e+04,2.79016308593750000e+04,4.35936093750000000e+04],"default_left":[true,false,false],"id":21,"leaf_child_counts":[0,0,0],"left_children":[1,-1,-1],"loss_changes":[4.79233638400000000e+09,0.00000000000000000e+00,0.00000000000000000e+00],"parents":[2147483647,0,0],"right_children":[2,-1,-1],"split_conditions":[3.85000000000000000e+01,2.79016296386718750e+02,4.35936096191406250e+02],"split_indices":[12,0,0],"sum_hessian":[1.10000000000000000e+02,3.80000000000000000e+01,7.20000000000000000e+01],"tree_param":{"num_deleted":"0","num_feature":"15","num_nodes":"3","size_leaf_vector":"0"}},{"base_weights":[3.80946562500000000e+04,2.81961484375000000e+04,4.34895546875000000e+04],"default_left":[true,false,false],"id":22,"leaf_child_counts":[0,0,0],"left_children":[1,-1,-1],"loss_changes":[4.70132326400000000e+09,0.00000000000000000e+00,0.00000000000000000e+00],"parents":[2147483647,0,0],"right_children":[2,-1,-1],"split_conditions":[3.59653906250000000e+04,2.81961486816406250e+02,4.34895538330078125e+02],"split_indices":[3,0,0],"sum_hessian":[1.10000000000000000e+02,4.10000000000000000e+01,6.90000000000000000e+01],"tree_param":{"num_deleted":"0","num_feature":"15","num_nodes":"3","size_leaf_vector":"0"}},{"base_weights":[3.77201718750000000e+04,2.73550390625000000e+04,4.27409921875000000e+04],"default_left":[true,false,false],"id":23,"leaf_child_counts":[0,0,0],"left_children":[1,-1,-1],"loss_changes":[4.60742656000000000e+09,0.00000000000000000e+00,0.00000000000000000e+00],"parents":[2147483647,0,0],"right_children":[2,-1,-1],"split_conditions":[3.85000000000000000e+01,2.73550384521484375e+02,4.27409912109375000e+02],"split_indices":[12,0,0],"sum_hessian":[1.10000000000000000e+02,3.80000000000000000e+01,7.20000000000000000e+01],"tree_param":{"num_deleted":"0","num_feature":"15","num_nodes":"3","size_leaf_vector":"0"}},{"base_weights":[3.73492851562500000e+04,2.76428730468750000e+04,4.26395703125000000e+04],"default_left":[true,false,false],"id":24,"leaf_child_counts":[0,0,0],"left_children":[1,-1,-1],"loss_changes":[4.52113203200000000e+09,0.00000000000000000e+00,0.00000000000000000e+00],"parents":[2147483647,0,0],"right_children":[2,-1,-1],"split_conditions":[3.59653906250000000e+04,2.76428710937500000e+02,4.26395690917968750e+02],"split_indices":[3,0,0],"sum_hessian":[1.10000000000000000e+02,4.10000000000000000e+01,6.90000000000000000e+01],"tree_param":{"num_deleted":"0","num_feature":"15","num_nodes":"3","size_leaf_vector":"0"}},{"base_weights":[3.69821210937500000e+04,2.81938125000000000e+04,4.27677890625000000e+04],"default_left":[true,false,false],"id":25,"leaf_child_counts":[0,0,0],"left_children":[1,-1,-1],"loss_changes":[4.43814707200000000e+09,0.00000000000000000e+00,0.00000000000000000e+00],"parents":[2147483647,0,0],"right_children":[2,-1,-1],"split_conditions":[4.70486015625000000e+04,2.81938110351562500e+02,4.27677886962890625e+02],"split_indices":[0,0,0],"sum_hessian":[1.10000000000000000e+02,4.60000000000000000e+01,6.40000000000000000e+01],"tree_param":{"num_deleted":"0","num_feature":"15","num_nodes":"3","size_leaf_vector":"0"}},{"base_weights":[3.66186953125000000e+04,2.65444531250000000e+04,4.14991953125000000e+04],"default_left":[true,false,false],"id":26,"leaf_child_counts":[0,0,0],"left_children":[1,-1,-1],"loss_changes":[4.35599769600000000e+09,0.00000000000000000e+00,0.00000000000000000e+00],"parents":[2147483647,0,0],"right_children":[2,-1,-1],"split_conditions":[3.85000000000000000e+01,2.65444519042968750e+02,4.14991943359375000e+02],"split_indices":[12,0,0],"sum_hessian":[1.10000000000000000e+02,3.80000000000000000e+01,7.20000000000000000e+01],"tree_param":{"num_deleted":"0","num_feature":"15","num_nodes":"3","size_leaf_vector":"0"}},{"base_weights":[3.62586367187500000e+04,2.76326210937500000e+04,4.19380820312500000e+04],"default_left":[true,false,false],"id":27,"leaf_child_counts":[0,0,0],"left_children":[1,-1,-1],"loss_changes":[4.27914035200000000e+09,0.00000000000000000e+00,0.00000000000000000e+00],"parents":[2147483647,0,0],"right_children":[2,-1,-1],"split_conditions":[4.70486015625000000e+04,2.76326202392578125e+02,4.19380798339843750e+02],"split_indices":[0,0,0],"sum_hessian":[1.10000000000000000e+02,4.60000000000000000e+01,6.40000000000000000e+01],"tree_param":{"num_deleted":"0","num_feature":"15","num_nodes":"3","size_leaf_vector":"0"}},{"base_weights":[3.59023164062500000e+04,2.60165722656250000e+04,4.06919296875000000e+04],"default_left":[true,false,false],"id":28,"leaf_child_counts":[0,0,0],"left_children":[1,-1,-1],"loss_changes":[4.19707289600000000e+09,0.00000000000000000e+00,0.00000000000000000e+00],"parents":[2147483647,0,0],"right_children":[2,-1,-1],"split_conditions":[3.85000000000000000e+01,2.60165710449218750e+02,4.06919281005859375e+02],"split_indices":[12,0,0],"sum_hessian":[1.10000000000000000e+02,3.80000000000000000e+01,7.20000000000000000e+01],"tree_param":{"num_deleted":"0","num_feature":"15","num_nodes":"3","size_leaf_vector":"0"}},{"base_weights":[3.55493046875000000e+04,2.70825664062500000e+04,4.11244960937500000e+04],"default_left":[true,false,false],"id":29,"leaf_child_counts":[0,0,0],"left_children":[1,-1,-1],"loss_changes":[4.12586803200000000e+09,0.00000000000000000e+00,0.00000000000000000e+00],"parents":[2147483647,0,0],"right_children":[2,-1,-1],"split_conditions":[4.70486015625000000e+04,2.70825653076171875e+02,4.11244964599609375e+02],"split_indices":[0,0,0],"sum_hessian":[1.10000000000000000e+02,4.60000000000000000e+01,6.40000000000000000e+01],"tree_param":{"num_deleted":"0","num_feature":"15","num_nodes":"3","size_leaf_vector":"0"}},{"base_weights":[3.51999570312500000e+04,2.71052675781250000e+04,4.09370976562500000e+04],"default_left":[true,false,false],"id":30,"leaf_child_counts":[0,0,0],"left_children":[1,-1,-1],"loss_changes":[4.04527513600000000e+09,0.00000000000000000e+00,0.00000000000000000e+00],"parents":[2147483647,0,0],"right_children":[2,-1,-1],"split_conditions":[4.76540000000000000e+04,2.71052673339843750e+02,4.09370971679687500e+02],"split_indices":[0,0,0],"sum_hessian":[1.10000000000000000e+02,4.80000000000000000e+01,6.20000000000000000e+01],"tree_param":{"num_deleted":"0","num_feature":"15","num_nodes":"3","size_leaf_vector":"0"}},{"base_weights":[3.48540859375000000e+04,2.52350937500000000e+04,3.95155468750000000e+04],"default_left":[true,false,false],"id":31,"leaf_child_counts":[0,0,0],"left_children":[1,-1,-1],"loss_changes":[3.97990297600000000e+09,0.00000000000000000e+00,0.00000000000000000e+00],"parents":[2147483647,0,0],"right_children":[2,-1,-1],"split_conditions":[3.85000000000000000e+01,2.52350936889648438e+02,3.95155456542968750e+02],"split_indices":[12,0,0],"sum_hessian":[1.10000000000000000e+02,3.80000000000000000e+01,7.20000000000000000e+01],"tree_param":{"num_deleted":"0","num_feature":"15","num_nodes":"3","size_leaf_vector":"0"}},{"base_weights":[3.45113789062500000e+04,2.68325976562500000e+04,4.03655859375000000e+04],"default_left":[true,false,false],"id":32,"leaf_child_counts":[0,0,0],"left_children":[1,-1,-1],"loss_changes":[3.90668288000000000e+09,0.00000000000000000e+00,0.00000000000000000e+00],"parents":[2147483647,0,0],"right_children":[2,-1,-1],"split_conditions":[4.82074492187500000e+04,2.68325958251953125e+02,4.03655853271484375e+02],"split_indices":[0,0,0],"sum_hessian":[1.10000000000000000e+02,5.00000000000000000e+01,6.00000000000000000e+01],"tree_param":{"num_deleted":"0","num_feature":"15","num_nodes":"3","size_leaf_vector":"0"}},{"base_weights":[3.41723203125000000e+04,2.47277695312500000e+04,3.87499257812500000e+04],"default_left":[true,false,false],"id":33,"leaf_child_counts":[0,0,0],"left_children":[1,-1,-1],"loss_changes":[3.84071270400000000e+09,0.00000000000000000e+00,0.00000000000000000e+00],"parents":[2147483647,0,0],"right_children":[2,-1,-1],"split_conditions":[3.85000000000000000e+01,2.47277694702148438e+02,3.87499237060546875e+02],"split_indices":[12,0,0],"sum_hessian":[1.10000000000000000e+02,3.80000000000000000e+01,7.20000000000000000e+01],"tree_param":{"num_deleted":"0","num_feature":"15","num_nodes":"3","size_leaf_vector":"0"}},{"base_weights":[3.38363164062500000e+04,2.62941113281250000e+04,3.95873984375000000e+04],"default_left":[true,false,false],"id":34,"leaf_child_counts":[0,0,0],"left_children":[1,-1,-1],"loss_changes":[3.77380864000000000e+09,0.00000000000000000e+00,0.00000000000000000e+00],"parents":[2147483647,0,0],"right_children":[2,-1,-1],"split_conditions":[4.82074492187500000e+04,2.62941101074218750e+02,3.95873962402343750e+02],"split_indices":[0,0,0],"sum_hessian":[1.10000000000000000e+02,5.00000000000000000e+01,6.00000000000000000e+01],"tree_param":{"num_deleted":"0","num_feature":"15","num_nodes":"3","size_leaf_vector":"0"}},{"base_weights":[3.35038867187500000e+04,2.42306328125000000e+04,3.79991328125000000e+04],"default_left":[true,false,false],"id":35,"leaf_child_counts":[0,0,0],"left_children":[1,-1,-1],"loss_changes":[3.70635571200000000e+09,0.00000000000000000e+00,0.00000000000000000e+00],"parents":[2147483647,0,0],"right_children":[2,-1,-1],"split_conditions":[3.85000000000000000e+01,2.42306320190429688e+02,3.79991333007812500e+02],"split_indices":[12,0,0],"sum_hessian":[1.10000000000000000e+02,3.80000000000000000e+01,7.20000000000000000e+01],"tree_param":{"num_deleted":"0","num_feature":"15","num_nodes":"3","size_leaf_vector":"0"}},{"base_weights":[3.31744531250000000e+04,2.69263242187500000e+04,3.99972265625000000e+04,2.23388964843750000e+04,2.96958750000000000e+04],"default_left":[true,true,false,false,false],"id":36,"leaf_child_counts":[0,0,0,0,0],"left_children":[1,3,-1,-1,-1],"loss_changes":[3.65490995200000000e+09,1.11636480000000000e+08,0.00000000000000000e+00,0.00000000000000000e+00,0.00000000000000000e+00],"parents":[2147483647,0,0,1,1],"right_children":[2,4,-1,-1,-1],"split_conditions":[5.06887031250000000e+04,3.67031992187500000e+04,3.99972259521484375e+02,2.23388961791992188e+02,2.96958740234375000e+02],"split_indices":[0,0,0,0,0],"sum_hessian":[1.10000000000000000e+02,6.00000000000000000e+01,5.00000000000000000e+01,2.60000000000000000e+01,3.40000000000000000e+01],"tree_param":{"num_deleted":"0","num_feature":"15","num_nodes":"5","size_leaf_vector":"0"}},{"base_weights":[3.28510000000000000e+04,2.66655917968750000e+04,3.96050976562500000e+04,2.21237832031250000e+04,2.94074003906250000e+04],"default_left":[true,true,false,false,false],"id":37,"leaf_child_counts":[0,0,0,0,0],"left_children":[1,3,-1,-1,-1],"loss_changes":[3.58113280000000000e+09,1.09015040000000000e+08,0.00000000000000000e+00,0.00000000000000000e+00,0.00000000000000000e+00],"parents":[2147483647,0,0,1,1],"right_children":[2,4,-1,-1,-1],"split_conditions":[5.06887031250000000e+04,3.67031992187500000e+04,3.96050964355468750e+02,2.21237823486328125e+02,2.94074005126953125e+02],"split_indices":[0,0,0,0,0],"sum_hessian":[1.10000000000000000e+02,6.00000000000000000e+01,5.00000000000000000e+01,2.60000000000000000e+01,3.40000000000000000e+01],"tree_param":{"num_deleted":"0","num_feature":"15","num_nodes":"5","size_leaf_vector":"0"}},{"base_weights":[3.25307011718750000e+04,2.52615683593750000e+04,3.80748828125000000e+04],"default_left":[true,false,false],"id":38,"leaf_child_counts":[0,0,0],"left_children":[1,-1,-1],"loss_changes":[3.51162368000000000e+09,0.00000000000000000e+00,0.00000000000000000e+00],"parents":[2147483647,0,0],"right_children":[2,-1,-1],"split_conditions":[4.82074492187500000e+04,2.52615676879882812e+02,3.80748809814453125e+02],"split_indices":[0,0,0],"sum_hessian":[1.10000000000000000e+02,5.00000000000000000e+01,6.00000000000000000e+01],"tree_param":{"num_deleted":"0","num_feature":"15","num_nodes":"3","size_leaf_vector":"0"}},{"base_weights":[3.22110996093750000e+04,2.61379042968750000e+04,3.88435312500000000e+04,2.16674785156250000e+04,2.88397207031250000e+04],"default_left":[true,true,false,false,false],"id":39,"leaf_child_counts":[0,0,0,0,0],"left_children":[1,3,-1,-1,-1],"loss_changes":[3.45579520000000000e+09,1.11890432000000000e+08,0.00000000000000000e+00,0.00000000000000000e+00,0.00000000000000000e+00],"parents":[2147483647,0,0,1,1],"right_children":[2,4,-1,-1,-1],"split_conditions":[5.06887031250000000e+04,3.67031992187500000e+04,3.88435302734375000e+02,2.16674774169921875e+02,2.88397186279296875e+02],"split_indices":[0,0,0,0,0],"sum_hessian":[1.10000000000000000e+02,6.00000000000000000e+01,5.00000000000000000e+01,2.60000000000000000e+01,3.40000000000000000e+01],"tree_param":{"num_deleted":"0","num_feature":"15","num_nodes":"5","size_leaf_vector":"0"}},{"base_weights":[3.18970390625000000e+04,2.30369394531250000e+04,3.61935703125000000e+04],"default_left":[true,false,false],"id":40,"leaf_child_counts":[0,0,0],"left_children":[1,-1,-1],"loss_changes":[3.39172556800000000e+09,0.00000000000000000e+00,0.00000000000000000e+00],"parents":[2147483647,0,0],"right_children":[2,-1,-1],"split_conditions":[3.85000000000000000e+01,2.30369384765625000e+02,3.61935699462890625e+02],"split_indices":[12,0,0],"sum_hessian":[1.10000000000000000e+02,3.80000000000000000e+01,7.20000000000000000e+01],"tree_param":{"num_deleted":"0","num_feature":"15","num_nodes":"3","size_leaf_vector":"0"}},{"base_weights":[3.15834042968750000e+04,2.56107617187500000e+04,3.81078710937500000e+04,2.12369921875000000e+04,2.82530781250000000e+04],"default_left":[true,true,false,false,false],"id":41,"leaf_child_counts":[0,0,0,0,0],"left_children":[1,3,-1,-1,-1],"loss_changes":[3.34951219200000000e+09,1.04960000000000000e+08,0.00000000000000000e+00,0.00000000000000000e+00,0.00000000000000000e+00],"parents":[2147483647,0,0,1,1],"right_children":[2,4,-1,-1,-1],"split_conditions":[5.06887031250000000e+04,3.67031992187500000e+04,3.81078704833984375e+02,2.12369918823242188e+02,2.82530761718750000e+02],"split_indices":[0,0,0,0,0],"sum_hessian":[1.10000000000000000e+02,6.00000000000000000e+01,5.00000000000000000e+01,2.60000000000000000e+01,3.40000000000000000e+01],"tree_param":{"num_deleted":"0","num_feature":"15","num_nodes":"5","size_leaf_vector":"0"}},{"base_weights":[3.12754628906250000e+04,2.53627675781250000e+04,3.77342656250000000e+04,2.10324863281250000e+04,2.79786191406250000e+04],"default_left":[true,true,false,false,false],"id":42,"leaf_child_counts":[0,0,0,0,0],"left_children":[1,3,-1,-1,-1],"loss_changes":[3.28192819200000000e+09,1.02510592000000000e+08,0.00000000000000000e+00,0.00000000000000000e+00,0.00000000000000000e+00],"parents":[2147483647,0,0,1,1],"right_children":[2,4,-1,-1,-1],"split_conditions":[5.06887031250000000e+04,3.67031992187500000e+04,3.77342651367187500e+02,2.10324859619140625e+02,2.79786193847656250e+02],"split_indices":[0,0,0,0,0],"sum_hessian":[1.10000000000000000e+02,6.00000000000000000e+01,5.00000000000000000e+01,2.60000000000000000e+01,3.40000000000000000e+01],"tree_param":{"num_deleted":"0","num_feature":"15","num_nodes":"5","size_leaf_vector":"0"}},{"base_weights":[3.09705234375000000e+04,2.51171738281250000e+04,3.73643242187500000e+04,2.08299511718750000e+04,2.77068261718750000e+04],"default_left":[true,true,false,false,false],"id":43,"leaf_child_counts":[0,0,0,0,0],"left_children":[1,3,-1,-1,-1],"loss_changes":[3.21571225600000000e+09,1.00114432000000000e+08,0.00000000000000000e+00,0.00000000000000000e+00,0.00000000000000000e+00],"parents":[2147483647,0,0,1,1],"right_children":[2,4,-1,-1,-1],"split_conditions":[5.06887031250000000e+04,3.67031992187500000e+04,3.73643218994140625e+02,2.08299499511718750e+02,2.77068267822265625e+02],"split_indices":[0,0,0,0,0],"sum_hessian":[1.10000000000000000e+02,6.00000000000000000e+01,5.00000000000000000e+01,2.60000000000000000e+01,3.40000000000000000e+01],"tree_param":{"num_deleted":"0","num_feature":"15","num_nodes":"5","size_leaf_vector":"0"}},{"base_weights":[3.06685566406250000e+04,2.25971386718750000e+04,3.50732851562500000e+04],"default_left":[true,false,false],"id":44,"leaf_child_counts":[0,0,0],"left_children":[1,-1,-1],"loss_changes":[3.15376435200000000e+09,0.00000000000000000e+00,0.00000000000000000e+00],"parents":[2147483647,0,0],"right_children":[2,-1,-1],"split_conditions":[3.59653906250000000e+04,2.25971374511718750e+02,3.50732849121093750e+02],"split_indices":[3,0,0],"sum_hessian":[1.10000000000000000e+02,4.10000000000000000e+01,6.90000000000000000e+01],"tree_param":{"num_deleted":"0","num_feature":"15","num_nodes":"3","size_leaf_vector":"0"}},{"base_weights":[3.03670664062500000e+04,2.46128320312500000e+04,3.66541523437500000e+04,2.04117636718750000e+04,2.71504316406250000e+04],"default_left":[true,true,false,false,false],"id":45,"leaf_child_counts":[0,0,0,0,0],"left_children":[1,3,-1,-1,-1],"loss_changes":[3.11352524800000000e+09,9.61126400000000000e+07,0.00000000000000000e+00,0.00000000000000000e+00,0.00000000000000000e+00],"parents":[2147483647,0,0,1,1],"right_children":[2,4,-1,-1,-1],"split_conditions":[5.06887031250000000e+04,3.67031992187500000e+04,3.66541503906250000e+02,2.04117630004882812e+02,2.71504302978515625e+02],"split_indices":[0,0,0,0,0],"sum_hessian":[1.10000000000000000e+02,6.00000000000000000e+01,5.00000000000000000e+01,2.60000000000000000e+01,3.40000000000000000e+01],"tree_param":{"num_deleted":"0","num_feature":"15","num_nodes":"5","size_leaf_vector":"0"}},{"base_weights":[3.00709843750000000e+04,2.43745019531250000e+04,3.62947968750000000e+04,2.02152070312500000e+04,2.68866855468750000e+04],"default_left":[true,true,false,false,false],"id":46,"leaf_child_counts":[0,0,0,0,0],"left_children":[1,3,-1,-1,-1],"loss_changes":[3.05070899200000000e+09,9.38639360000000000e+07,0.00000000000000000e+00,0.00000000000000000e+00,0.00000000000000000e+00],"parents":[2147483647,0,0,1,1],"right_children":[2,4,-1,-1,-1],"split_conditions":[5.06887031250000000e+04,3.67031992187500000e+04,3.62947967529296875e+02,2.02152069091796875e+02,2.68866851806640625e+02],"split_indices":[0,0,0,0,0],"sum_hessian":[1.10000000000000000e+02,6.00000000000000000e+01,5.00000000000000000e+01,2.60000000000000000e+01,3.40000000000000000e+01],"tree_param":{"num_deleted":"0","num_feature":"15","num_nodes":"5","size_leaf_vector":"0"}},{"base_weights":[2.97777871093750000e+04,2.41384765625000000e+04,3.59389648437500000e+04,2.00205429687500000e+04,2.66255000000000000e+04],"default_left":[true,true,false,false,false],"id":47,"leaf_child_counts":[0,0,0,0,0],"left_children":[1,3,-1,-1,-1],"loss_changes":[2.98916249600000000e+09,9.16684800000000000e+07,0.00000000000000000e+00,0.00000000000000000e+00,0.00000000000000000e+00],"parents":[2147483647,0,0,1,1],"right_children":[2,4,-1,-1,-1],"split_conditions":[5.06887031250000000e+04,3.67031992187500000e+04,3.59389648437500000e+02,2.00205429077148438e+02,2.66255004882812500e+02],"split_indices":[0,0,0,0,0],"sum_hessian":[1.10000000000000000e+02,6.00000000000000000e+01,5.00000000000000000e+01,2.60000000000000000e+01,3.40000000000000000e+01],"tree_param":{"num_deleted":"0","num_feature":"15","num_nodes":"5","size_leaf_vector":"0"}},{"base_weights":[2.94874492187500000e+04,2.12608535156250000e+04,3.34785429687500000e+04],"default_left":[true,false,false],"id":48,"leaf_child_counts":[0,0,0],"left_children":[1,-1,-1],"loss_changes":[2.93268684800000000e+09,0.00000000000000000e+00,0.00000000000000000e+00],"parents":[2147483647,0,0],"right_children":[2,-1,-1],"split_conditions":[3.85000000000000000e+01,2.12608535766601562e+02,3.34785430908203125e+02],"split_indices":[12,0,0],"sum_hessian":[1.10000000000000000e+02,3.80000000000000000e+01,7.20000000000000000e+01],"tree_param":{"num_deleted":"0","num_feature":"15","num_nodes":"3","size_leaf_vector":"0"}},{"base_weights":[2.91975078125000000e+04,2.36515527343750000e+04,3.52584023437500000e+04,1.87837734375000000e+04,2.55679375000000000e+04],"default_left":[true,true,false,false,false],"id":49,"leaf_child_counts":[0,0,0,0,0],"left_children":[1,3,-1,-1,-1],"loss_changes":[2.89717452800000000e+09,8.87787520000000000e+07,0.00000000000000000e+00,0.00000000000000000e+00,0.00000000000000000e+00],"parents":[2147483647,0,0,1,1],"right_children":[2,4,-1,-1,-1],"split_conditions":[5.06887031250000000e+04,3.54807500000000000e+04,3.52584014892578125e+02,1.87837722778320312e+02,2.55679367065429688e+02],"split_indices":[0,0,0,0,0],"sum_hessian":[1.10000000000000000e+02,6.00000000000000000e+01,5.00000000000000000e+01,2.00000000000000000e+01,4.00000000000000000e+01],"tree_param":{"num_deleted":"0","num_feature":"15","num_nodes":"5","size_leaf_vector":"0"}},{"base_weights":[2.89127050781250000e+04,2.34223085937500000e+04,3.49127343750000000e+04,1.86048808593750000e+04,2.53184941406250000e+04],"default_left":[true,true,false,false,false],"id":50,"leaf_child_counts":[0,0,0,0,0],"left_children":[1,3,-1,-1,-1],"loss_changes":[2.83888844800000000e+09,8.61716480000000000e+07,0.00000000000000000e+00,0.00000000000000000e+00,0.00000000000000000e+00],"parents":[2147483647,0,0,1,1],"right_children":[2,4,-1,-1,-1],"split_conditions":[5.06887031250000000e+04,3.54807500000000000e+04,3.49127349853515625e+02,1.86048797607421875e+02,2.53184936523437500e+02],"split_indices":[0,0,0,0,0],"sum_hessian":[1.10000000000000000e+02,6.00000000000000000e+01,5.00000000000000000e+01,2.00000000000000000e+01,4.00000000000000000e+01],"tree_param":{"num_deleted":"0","num_feature":"15","num_nodes":"5","size_leaf_vector":"0"}},{"base_weights":[2.86306796875000000e+04,2.17104316406250000e+04,3.31940781250000000e+04],"default_left":[true,false,false],"id":51,"leaf_child_counts":[0,0,0],"left_children":[1,-1,-1],"loss_changes":[2.78470656000000000e+09,0.00000000000000000e+00,0.00000000000000000e+00],"parents":[2147483647,0,0],"right_children":[2,-1,-1],"split_conditions":[4.70486015625000000e+04,2.17104309082031250e+02,3.31940765380859375e+02],"split_indices":[0,0,0],"sum_hessian":[1.10000000000000000e+02,4.60000000000000000e+01,6.40000000000000000e+01],"tree_param":{"num_deleted":"0","num_feature":"15","num_nodes":"3","size_leaf_vector":"0"}},{"base_weights":[2.83493183593750000e+04,2.29553828125000000e+04,3.42450195312500000e+04,1.90239199218750000e+04,2.53323593750000000e+04],"default_left":[true,true,false,false,false],"id":52,"leaf_child_counts":[0,0,0,0,0],"left_children":[1,3,-1,-1,-1],"loss_changes":[2.74380390400000000e+09,8.81233920000000000e+07,0.00000000000000000e+00,0.00000000000000000e+00,0.00000000000000000e+00],"parents":[2147483647,0,0,1,1],"right_children":[2,4,-1,-1,-1],"split_conditions":[5.06887031250000000e+04,3.67031992187500000e+04,3.42450195312500000e+02,1.90239196777343750e+02,2.53323593139648438e+02],"split_indices":[0,0,0,0,0],"sum_hessian":[1.10000000000000000e+02,6.00000000000000000e+01,5.00000000000000000e+01,2.60000000000000000e+01,3.40000000000000000e+01],"tree_param":{"num_deleted":"0","num_feature":"15","num_nodes":"5","size_leaf_vector":"0"}},{"base_weights":[2.80729082031250000e+04,2.27331015625000000e+04,3.39092851562500000e+04,1.88407265625000000e+04,2.50862734375000000e+04],"default_left":[true,true,false,false,false],"id":53,"leaf_child_counts":[0,0,0,0,0],"left_children":[1,3,-1,-1,-1],"loss_changes":[2.68846694400000000e+09,8.60794880000000000e+07,0.00000000000000000e+00,0.00000000000000000e+00,0.00000000000000000e+00],"parents":[2147483647,0,0,1,1],"right_children":[2,4,-1,-1,-1],"split_conditions":[5.06887031250000000e+04,3.67031992187500000e+04,3.39092834472656250e+02,1.88407257080078125e+02,2.50862731933593750e+02],"split_indices":[0,0,0,0,0],"sum_hessian":[1.10000000000000000e+02,6.00000000000000000e+01,5.00000000000000000e+01,2.60000000000000000e+01,3.40000000000000000e+01],"tree_param":{"num_deleted":"0","num_feature":"15","num_nodes":"5","size_leaf_vector":"0"}},{"base_weights":[2.77991894531250000e+04,2.00079980468750000e+04,3.15807968750000000e+04,2.69711855468750000e+04,3.43409570312500000e+04],"default_left":[true,false,true,false,false],"id":54,"leaf_child_counts":[0,0,0,0,0],"left_children":[1,-1,3,-1,-1],"loss_changes":[2.63854489600000000e+09,0.00000000000000000e+00,2.58867200000000000e+06,0.00000000000000000e+00,0.00000000000000000e+00],"parents":[2147483647,0,0,2,2],"right_children":[2,-1,4,-1,-1],"split_conditions":[3.85000000000000000e+01,2.00079971313476562e+02,5.46657500000000000e+04,2.69711853027343750e+02,3.43409576416015625e+02],"split_indices":[12,0,0,0,0],"sum_hessian":[1.10000000000000000e+02,3.80000000000000000e+01,7.20000000000000000e+01,3.10000000000000000e+01,4.10000000000000000e+01],"tree_param":{"num_deleted":"0","num_feature":"15","num_nodes":"5","size_leaf_vector":"0"}},{"base_weights":[2.75285234375000000e+04,1.98130468750000000e+04,3.12733886718750000e+04,2.67099042968750000e+04,3.40057226562500000e+04],"default_left":[true,false,true,false,false],"id":55,"leaf_child_counts":[0,0,0,0,0],"left_children":[1,-1,3,-1,-1],"loss_changes":[2.58754969600000000e+09,0.00000000000000000e+00,1.94150400000000000e+06,0.00000000000000000e+00,0.00000000000000000e+00],"parents":[2147483647,0,0,2,2],"right_children":[2,-1,4,-1,-1],"split_conditions":[3.85000000000000000e+01,1.98130462646484375e+02,5.46657500000000000e+04,2.67099029541015625e+02,3.40057220458984375e+02],"split_indices":[12,0,0,0,0],"sum_hessian":[1.10000000000000000e+02,3.80000000000000000e+01,7.20000000000000000e+01,3.10000000000000000e+01,4.10000000000000000e+01],"tree_param":{"num_deleted":"0","num_feature":"15","num_nodes":"5","size_leaf_vector":"0"}},{"base_weights":[2.72604941406250000e+04,2.20713027343750000e+04,3.29326562500000000e+04,1.74810605468750000e+04,2.38840761718750000e+04],"default_left":[true,true,false,false,false],"id":56,"leaf_child_counts":[0,0,0,0,0],"left_children":[1,3,-1,-1,-1],"loss_changes":[2.54029824000000000e+09,9.00689920000000000e+07,0.00000000000000000e+00,0.00000000000000000e+00,0.00000000000000000e+00],"parents":[2147483647,0,0,1,1],"right_children":[2,4,-1,-1,-1],"split_conditions":[5.06887031250000000e+04,3.54807500000000000e+04,3.29326568603515625e+02,1.74810607910156250e+02,2.38840759277343750e+02],"split_indices":[0,0,0,0,0],"sum_hessian":[1.10000000000000000e+02,6.00000000000000000e+01,5.00000000000000000e+01,2.00000000000000000e+01,4.00000000000000000e+01],"tree_param":{"num_deleted":"0","num_feature":"15","num_nodes":"5","size_leaf_vector":"0"}},{"base_weights":[2.69945820312500000e+04,1.94201171875000000e+04,3.06714277343750000e+04,2.61943261718750000e+04,3.33522812500000000e+04],"default_left":[true,false,true,false,false],"id":57,"leaf_child_counts":[0,0,0,0,0],"left_children":[1,-1,3,-1,-1],"loss_changes":[2.49572556800000000e+09,0.00000000000000000e+00,2.53952000000000000e+06,0.00000000000000000e+00,0.00000000000000000e+00],"parents":[2147483647,0,0,2,2],"right_children":[2,-1,4,-1,-1],"split_conditions":[3.85000000000000000e+01,1.94201171875000000e+02,5.46657500000000000e+04,2.61943267822265625e+02,3.33522796630859375e+02],"split_indices":[12,0,0,0,0],"sum_hessian":[1.10000000000000000e+02,3.80000000000000000e+01,7.20000000000000000e+01,3.10000000000000000e+01,4.10000000000000000e+01],"tree_param":{"num_deleted":"0","num_feature":"15","num_nodes":"5","size_leaf_vector":"0"}},{"base_weights":[2.67317500000000000e+04,1.92308945312500000e+04,3.03728691406250000e+04,2.59405683593750000e+04,3.30266953125000000e+04],"default_left":[true,false,true,false,false],"id":58,"leaf_child_counts":[0,0,0,0,0],"left_children":[1,-1,3,-1,-1],"loss_changes":[2.44748288000000000e+09,0.00000000000000000e+00,1.93740800000000000e+06,0.00000000000000000e+00,0.00000000000000000e+00],"parents":[2147483647,0,0,2,2],"right_children":[2,-1,4,-1,-1],"split_conditions":[3.85000000000000000e+01,1.92308944702148438e+02,5.46657500000000000e+04,2.59405670166015625e+02,3.30266937255859375e+02],"split_indices":[12,0,0,0,0],"sum_hessian":[1.10000000000000000e+02,3.80000000000000000e+01,7.20000000000000000e+01,3.10000000000000000e+01,4.10000000000000000e+01],"tree_param":{"num_deleted":"0","num_feature":"15","num_nodes":"5","size_leaf_vector":"0"}},{"base_weights":[2.64714785156250000e+04,2.04838828125000000e+04,3.10435410156250000e+04],"default_left":[true,false,false],"id":59,"leaf_child_counts":[0,0,0],"left_children":[1,-1,-1],"loss_changes":[2.40281190400000000e+09,0.00000000000000000e+00,0.00000000000000000e+00],"parents":[2147483647,0,0],"right_children":[2,-1,-1],"split_conditions":[4.82074492187500000e+04,2.04838821411132812e+02,3.10435394287109375e+02],"split_indices":[0,0,0],"sum_hessian":[1.10000000000000000e+02,5.00000000000000000e+01,6.00000000000000000e+01],"tree_param":{"num_deleted":"0","num_feature":"15","num_nodes":"3","size_leaf_vector":"0"}},{"base_weights":[2.62114042968750000e+04,2.12097734375000000e+04,3.16797988281250000e+04,1.67513847656250000e+04,2.29760273437500000e+04],"default_left":[true,true,false,false,false],"id":60,"leaf_child_counts":[0,0,0,0,0],"left_children":[1,3,-1,-1,-1],"loss_changes":[2.36403097600000000e+09,9.54716160000000000e+07,0.00000000000000000e+00,0.00000000000000000e+00,0.00000000000000000e+00],"parents":[2147483647,0,0,1,1],"right_children":[2,4,-1,-1,-1],"split_conditions":[5.06887031250000000e+04,3.54807500000000000e+04,3.16797973632812500e+02,1.67513839721679688e+02,2.29760269165039062e+02],"split_indices":[0,0,0,0,0],"sum_hessian":[1.10000000000000000e+02,6.00000000000000000e+01,5.00000000000000000e+01,2.00000000000000000e+01,4.00000000000000000e+01],"tree_param":{"num_deleted":"0","num_feature":"15","num_nodes":"5","size_leaf_vector":"0"}},{"base_weights":[2.59557246093750000e+04,1.86519824218750000e+04,2.95021640625000000e+04,2.51810742187500000e+04,3.20919921875000000e+04],"default_left":[true,false,true,false,false],"id":61,"leaf_child_counts":[0,0,0,0,0],"left_children":[1,-1,3,-1,-1],"loss_changes":[2.32488140800000000e+09,0.00000000000000000e+00,8.82688000000000000e+06,0.00000000000000000e+00,0.00000000000000000e+00],"parents":[2147483647,0,0,2,2],"right_children":[2,-1,4,-1,-1],"split_conditions":[3.85000000000000000e+01,1.86519821166992188e+02,5.46657500000000000e+04,2.51810729980468750e+02,3.20919921875000000e+02],"split_indices":[12,0,0,0,0],"sum_hessian":[1.10000000000000000e+02,3.80000000000000000e+01,7.20000000000000000e+01,3.10000000000000000e+01,4.10000000000000000e+01],"tree_param":{"num_deleted":"0","num_feature":"15","num_nodes":"5","size_leaf_vector":"0"}},{"base_weights":[2.57030078125000000e+04,1.84702460937500000e+04,2.92149882812500000e+04,2.49371328125000000e+04,3.17787128906250000e+04],"default_left":[true,false,true,false,false],"id":62,"leaf_child_counts":[0,0,0,0,0],"left_children":[1,-1,3,-1,-1],"loss_changes":[2.27994009600000000e+09,0.00000000000000000e+00,8.13875200000000000e+06,0.00000000000000000e+00,0.00000000000000000e+00],"parents":[2147483647,0,0,2,2],"right_children":[2,-1,4,-1,-1],"split_conditions":[3.85000000000000000e+01,1.84702453613281250e+02,5.46657500000000000e+04,2.49371322631835938e+02,3.17787109375000000e+02],"split_indices":[12,0,0,0,0],"sum_hessian":[1.10000000000000000e+02,3.80000000000000000e+01,7.20000000000000000e+01,3.10000000000000000e+01,4.10000000000000000e+01],"tree_param":{"num_deleted":"0","num_feature":"15","num_nodes":"5","size_leaf_vector":"0"}},{"base_weights":[2.54527500000000000e+04,1.82902792968750000e+04,2.89306093750000000e+04,2.46955546875000000e+04,3.14684921875000000e+04],"default_left":[true,false,true,false,false],"id":63,"leaf_child_counts":[0,0,0,0,0],"left_children":[1,-1,3,-1,-1],"loss_changes":[2.23586713600000000e+09,0.00000000000000000e+00,7.47929600000000000e+06,0.00000000000000000e+00,0.00000000000000000e+00],"parents":[2147483647,0,0,2,2],"right_children":[2,-1,4,-1,-1],"split_conditions":[3.85000000000000000e+01,1.82902786254882812e+02,5.46657500000000000e+04,2.46955535888671875e+02,3.14684906005859375e+02],"split_indices":[12,0,0,0,0],"sum_hessian":[1.10000000000000000e+02,3.80000000000000000e+01,7.20000000000000000e+01,3.10000000000000000e+01,4.10000000000000000e+01],"tree_param":{"num_deleted":"0","num_feature":"15","num_nodes":"5","size_leaf_vector":"0"}},{"base_weights":[2.52049316406250000e+04,2.03891777343750000e+04,3.04707343750000000e+04,1.60641113281250000e+04,2.21071582031250000e+04],"default_left":[true,true,false,false,false],"id":64,"leaf_child_counts":[0,0,0,0,0],"left_children":[1,3,-1,-1,-1],"loss_changes":[2.19355545600000000e+09,9.81217280000000000e+07,0.00000000000000000e+00,0.00000000000000000e+00,0.00000000000000000e+00],"parents":[2147483647,0,0,1,1],"right_children":[2,4,-1,-1,-1],"split_conditions":[5.06887031250000000e+04,3.54807500000000000e+04,3.04707336425781250e+02,1.60641113281250000e+02,2.21071578979492188e+02],"split_indices":[0,0,0,0,0],"sum_hessian":[1.10000000000000000e+02,6.00000000000000000e+01,5.00000000000000000e+01,2.00000000000000000e+01,4.00000000000000000e+01],"tree_param":{"num_deleted":"0","num_feature":"15","num_nodes":"5","size_leaf_vector":"0"}},{"base_weights":[2.49590644531250000e+04,1.79276542968750000e+04,2.83736679687500000e+04,2.42186308593750000e+04,3.08638476562500000e+04],"default_left":[true,false,true,false,false],"id":65,"leaf_child_counts":[0,0,0,0,0],"left_children":[1,-1,3,-1,-1],"loss_changes":[2.15638016000000000e+09,0.00000000000000000e+00,7.83564800000000000e+06,0.00000000000000000e+00,0.00000000000000000e+00],"parents":[2147483647,0,0,2,2],"right_children":[2,-1,4,-1,-1],"split_conditions":[3.85000000000000000e+01,1.79276535034179688e+02,5.46657500000000000e+04,2.42186309814453125e+02,3.08638458251953125e+02],"split_indices":[12,0,0,0,0],"sum_hessian":[1.10000000000000000e+02,3.80000000000000000e+01,7.20000000000000000e+01,3.10000000000000000e+01,4.10000000000000000e+01],"tree_param":{"num_deleted":"0","num_feature":"15","num_nodes":"5","size_leaf_vector":"0"}},{"base_weights":[2.47160527343750000e+04,1.77529726562500000e+04,2.80974765625000000e+04,2.39840136718750000e+04,3.05625585937500000e+04],"default_left":[true,false,true,false,false],"id":66,"leaf_child_counts":[0,0,0,0,0],"left_children":[1,-1,3,-1,-1],"loss_changes":[2.11469516800000000e+09,0.00000000000000000e+00,7.21305600000000000e+06,0.00000000000000000e+00,0.00000000000000000e+00],"parents":[2147483647,0,0,2,2],"right_children":[2,-1,4,-1,-1],"split_conditions":[3.85000000000000000e+01,1.77529724121093750e+02,5.46657500000000000e+04,2.39840133666992188e+02,3.05625579833984375e+02],"split_indices":[12,0,0,0,0],"sum_hessian":[1.10000000000000000e+02,3.80000000000000000e+01,7.20000000000000000e+01,3.10000000000000000e+01,4.10000000000000000e+01],"tree_param":{"num_deleted":"0","num_feature":"15","num_nodes":"5","size_leaf_vector":"0"}},{"base_weights":[2.44754062500000000e+04,1.79559648437500000e+04,2.80374218750000000e+04],"default_left":[true,false,false],"id":67,"leaf_child_counts":[0,0,0],"left_children":[1,-1,-1],"loss_changes":[2.07424307200000000e+09,0.00000000000000000e+00,0.00000000000000000e+00],"parents":[2147483647,0,0],"right_children":[2,-1,-1],"split_conditions":[3.59653906250000000e+04,1.79559646606445312e+02,2.80374206542968750e+02],"split_indices":[3,0,0],"sum_hessian":[1.10000000000000000e+02,4.10000000000000000e+01,6.90000000000000000e+01],"tree_param":{"num_deleted":"0","num_feature":"15","num_nodes":"3","size_leaf_vector":"0"}},{"base_weights":[2.42347949218750000e+04,1.95874062500000000e+04,2.93182421875000000e+04,1.54002949218750000e+04,2.12542832031250000e+04],"default_left":[true,true,false,false,false],"id":68,"leaf_child_counts":[0,0,0,0,0],"left_children":[1,3,-1,-1,-1],"loss_changes":[2.04807782400000000e+09,9.84207360000000000e+07,0.00000000000000000e+00,0.00000000000000000e+00,0.00000000000000000e+00],"parents":[2147483647,0,0,1,1],"right_children":[2,4,-1,-1,-1],"split_conditions":[5.06887031250000000e+04,3.54807500000000000e+04,2.93182403564453125e+02,1.54002944946289062e+02,2.12542831420898438e+02],"split_indices":[0,0,0,0,0],"sum_hessian":[1.10000000000000000e+02,6.00000000000000000e+01,5.00000000000000000e+01,2.00000000000000000e+01,4.00000000000000000e+01],"tree_param":{"num_deleted":"0","num_feature":"15","num_nodes":"5","size_leaf_vector":"0"}},{"base_weights":[2.39983906250000000e+04,1.93975410156250000e+04,2.90308085937500000e+04,1.52536240234375000e+04,2.10469238281250000e+04],"default_left":[true,true,false,false,false],"id":69,"leaf_child_counts":[0,0,0,0,0],"left_children":[1,3,-1,-1,-1],"loss_changes":[2.00690073600000000e+09,9.58873600000000000e+07,0.00000000000000000e+00,0.00000000000000000e+00,0.00000000000000000e+00],"parents":[2147483647,0,0,1,1],"right_children":[2,4,-1,-1,-1],"split_conditions":[5.06887031250000000e+04,3.54807500000000000e+04,2.90308074951171875e+02,1.52536239624023438e+02,2.10469238281250000e+02],"split_indices":[0,0,0,0,0],"sum_hessian":[1.10000000000000000e+02,6.00000000000000000e+01,5.00000000000000000e+01,2.00000000000000000e+01,4.00000000000000000e+01],"tree_param":{"num_deleted":"0","num_feature":"15","num_nodes":"5","size_leaf_vector":"0"}},{"base_weights":[2.37642910156250000e+04,1.70526015625000000e+04,2.70244492187500000e+04,2.30345781250000000e+04,2.94209121093750000e+04],"default_left":[true,false,true,false,false],"id":70,"leaf_child_counts":[0,0,0,0,0],"left_children":[1,-1,3,-1,-1],"loss_changes":[1.96797235200000000e+09,0.00000000000000000e+00,2.02997760000000000e+07,0.00000000000000000e+00,0.00000000000000000e+00],"parents":[2147483647,0,0,2,2],"right_children":[2,-1,4,-1,-1],"split_conditions":[3.85000000000000000e+01,1.70526016235351562e+02,5.46657500000000000e+04,2.30345779418945312e+02,2.94209106445312500e+02],"split_indices":[12,0,0,0,0],"sum_hessian":[1.10000000000000000e+02,3.80000000000000000e+01,7.20000000000000000e+01,3.10000000000000000e+01,4.10000000000000000e+01],"tree_param":{"num_deleted":"0","num_feature":"15","num_nodes":"5","size_leaf_vector":"0"}},{"base_weights":[2.35329101562500000e+04,1.79864492187500000e+04,2.74732871093750000e+04],"default_left":[true,false,false],"id":71,"leaf_child_counts":[0,0,0],"left_children":[1,-1,-1],"loss_changes":[1.93177600000000000e+09,0.00000000000000000e+00,0.00000000000000000e+00],"parents":[2147483647,0,0],"right_children":[2,-1,-1],"split_conditions":[4.76540000000000000e+04,1.79864486694335938e+02,2.74732879638671875e+02],"split_indices":[0,0,0],"sum_hessian":[1.10000000000000000e+02,4.80000000000000000e+01,6.20000000000000000e+01],"tree_param":{"num_deleted":"0","num_feature":"15","num_nodes":"3","size_leaf_vector":"0"}},{"base_weights":[2.33016777343750000e+04,1.88246328125000000e+04,2.81996777343750000e+04,1.47746455078125000e+04,2.04398789062500000e+04],"default_left":[true,true,false,false,false],"id":72,"leaf_child_counts":[0,0,0,0,0],"left_children":[1,3,-1,-1,-1],"loss_changes":[1.90321868800000000e+09,9.70526720000000000e+07,0.00000000000000000e+00,0.00000000000000000e+00,0.00000000000000000e+00],"parents":[2147483647,0,0,1,1],"right_children":[2,4,-1,-1,-1],"split_conditions":[5.06887031250000000e+04,3.54807500000000000e+04,2.81996765136718750e+02,1.47746444702148438e+02,2.04398788452148438e+02],"split_indices":[0,0,0,0,0],"sum_hessian":[1.10000000000000000e+02,6.00000000000000000e+01,5.00000000000000000e+01,2.00000000000000000e+01,4.00000000000000000e+01],"tree_param":{"num_deleted":"0","num_feature":"15","num_nodes":"5","size_leaf_vector":"0"}},{"base_weights":[2.30743730468750000e+04,1.65410917968750000e+04,2.62486699218750000e+04,2.23550957031250000e+04,2.85902343750000000e+04],"default_left":[true,false,true,false,false],"id":73,"leaf_child_counts":[0,0,0,0,0],"left_children":[1,-1,3,-1,-1],"loss_changes":[1.86780057600000000e+09,0.00000000000000000e+00,2.64069120000000000e+07,0.00000000000000000e+00,0.00000000000000000e+00],"parents":[2147483647,0,0,2,2],"right_children":[2,-1,4,-1,-1],"split_conditions":[3.85000000000000000e+01,1.65410919189453125e+02,5.46657500000000000e+04,2.23550949096679688e+02,2.85902343750000000e+02],"split_indices":[12,0,0,0,0],"sum_hessian":[1.10000000000000000e+02,3.80000000000000000e+01,7.20000000000000000e+01,3.10000000000000000e+01,4.10000000000000000e+01],"tree_param":{"num_deleted":"0","num_feature":"15","num_nodes":"5","size_leaf_vector":"0"}},{"base_weights":[2.28497109375000000e+04,1.63799228515625000e+04,2.59931621093750000e+04,2.21385312500000000e+04,2.83111406250000000e+04],"default_left":[true,false,true,false,false],"id":74,"leaf_child_counts":[0,0,0,0,0],"left_children":[1,-1,3,-1,-1],"loss_changes":[1.83169433600000000e+09,0.00000000000000000e+00,2.54812160000000000e+07,0.00000000000000000e+00,0.00000000000000000e+00],"parents":[2147483647,0,0,2,2],"right_children":[2,-1,4,-1,-1],"split_conditions":[3.85000000000000000e+01,1.63799224853515625e+02,5.46657500000000000e+04,2.21385314941406250e+02,2.83111389160156250e+02],"split_indices":[12,0,0,0,0],"sum_hessian":[1.10000000000000000e+02,3.80000000000000000e+01,7.20000000000000000e+01,3.10000000000000000e+01,4.10000000000000000e+01],"tree_param":{"num_deleted":"0","num_feature":"15","num_nodes":"5","size_leaf_vector":"0"}},{"base_weights":[2.26272343750000000e+04,1.82766113281250000e+04,2.73872500000000000e+04,1.43204023437500000e+04,1.98571894531250000e+04],"default_left":[true,true,false,false,false],"id":75,"leaf_child_counts":[0,0,0,0,0],"left_children":[1,3,-1,-1,-1],"loss_changes":[1.79815628800000000e+09,9.70752000000000000e+07,0.00000000000000000e+00,0.00000000000000000e+00,0.00000000000000000e+00],"parents":[2147483647,0,0,1,1],"right_children":[2,4,-1,-1,-1],"split_conditions":[5.06887031250000000e+04,3.54807500000000000e+04,2.73872497558593750e+02,1.43204025268554688e+02,1.98571884155273438e+02],"split_indices":[0,0,0,0,0],"sum_hessian":[1.10000000000000000e+02,6.00000000000000000e+01,5.00000000000000000e+01,2.00000000000000000e+01,4.00000000000000000e+01],"tree_param":{"num_deleted":"0","num_feature":"15","num_nodes":"5","size_leaf_vector":"0"}},{"base_weights":[2.24065078125000000e+04,1.60552373046875000e+04,2.54927148437500000e+04,2.17105195312500000e+04,2.77674179687500000e+04],"default_left":[true,false,true,false,false],"id":76,"leaf_child_counts":[0,0,0,0,0],"left_children":[1,-1,3,-1,-1],"loss_changes":[1.76645734400000000e+09,0.00000000000000000e+00,2.52026880000000000e+07,0.00000000000000000e+00,0.00000000000000000e+00],"parents":[2147483647,0,0,2,2],"right_children":[2,-1,4,-1,-1],"split_conditions":[3.85000000000000000e+01,1.60552368164062500e+02,5.46657500000000000e+04,2.17105194091796875e+02,2.77674163818359375e+02],"split_indices":[12,0,0,0,0],"sum_hessian":[1.10000000000000000e+02,3.80000000000000000e+01,7.20000000000000000e+01,3.10000000000000000e+01,4.10000000000000000e+01],"tree_param":{"num_deleted":"0","num_feature":"15","num_nodes":"5","size_leaf_vector":"0"}},{"base_weights":[2.21883457031250000e+04,1.58988017578125000e+04,2.52445644531250000e+04,2.15001972656250000e+04,2.74963554687500000e+04],"default_left":[true,false,true,false,false],"id":77,"leaf_child_counts":[0,0,0,0,0],"left_children":[1,-1,3,-1,-1],"loss_changes":[1.73230489600000000e+09,0.00000000000000000e+00,2.43261440000000000e+07,0.00000000000000000e+00,0.00000000000000000e+00],"parents":[2147483647,0,0,2,2],"right_children":[2,-1,4,-1,-1],"split_conditions":[3.85000000000000000e+01,1.58988006591796875e+02,5.46657500000000000e+04,2.15001968383789062e+02,2.74963562011718750e+02],"split_indices":[12,0,0,0,0],"sum_hessian":[1.10000000000000000e+02,3.80000000000000000e+01,7.20000000000000000e+01,3.10000000000000000e+01,4.10000000000000000e+01],"tree_param":{"num_deleted":"0","num_feature":"15","num_nodes":"5","size_leaf_vector":"0"}},{"base_weights":[2.19723105468750000e+04,1.72870898437500000e+04,2.61076562500000000e+04,1.27855458984375000e+04,1.83760078125000000e+04],"default_left":[true,true,false,false,false],"id":78,"leaf_child_counts":[0,0,0,0,0],"left_children":[1,3,-1,-1,-1],"loss_changes":[1.69929932800000000e+09,3.46521600000000000e+07,0.00000000000000000e+00,0.00000000000000000e+00,0.00000000000000000e+00],"parents":[2147483647,0,0,1,1],"right_children":[2,4,-1,-1,-1],"split_conditions":[4.88240507812500000e+04,3.32414531250000000e+04,2.61076568603515625e+02,1.27855453491210938e+02,1.83760070800781250e+02],"split_indices":[0,0,0,0,0],"sum_hessian":[1.10000000000000000e+02,5.40000000000000000e+01,5.60000000000000000e+01,1.30000000000000000e+01,4.10000000000000000e+01],"tree_param":{"num_deleted":"0","num_feature":"15","num_nodes":"5","size_leaf_vector":"0"}},{"base_weights":[2.17577460937500000e+04,1.55834765625000000e+04,2.47582773437500000e+04,2.10776542968750000e+04,2.69730781250000000e+04],"default_left":[true,false,true,false,false],"id":79,"leaf_child_counts":[0,0,0,0,0],"left_children":[1,-1,3,-1,-1],"loss_changes":[1.67057817600000000e+09,0.00000000000000000e+00,2.65584640000000000e+07,0.00000000000000000e+00,0.00000000000000000e+00],"parents":[2147483647,0,0,2,2],"right_children":[2,-1,4,-1,-1],"split_conditions":[3.85000000000000000e+01,1.55834762573242188e+02,5.46657500000000000e+04,2.10776535034179688e+02,2.69730773925781250e+02],"split_indices":[12,0,0,0,0],"sum_hessian":[1.10000000000000000e+02,3.80000000000000000e+01,7.20000000000000000e+01,3.10000000000000000e+01,4.10000000000000000e+01],"tree_param":{"num_deleted":"0","num_feature":"15","num_nodes":"5","size_leaf_vector":"0"}},{"base_weights":[2.15459023437500000e+04,1.73950136718750000e+04,2.60882207031250000e+04,1.42420869140625000e+04,1.93302714843750000e+04],"default_left":[true,true,false,false,false],"id":80,"leaf_child_counts":[0,0,0,0,0],"left_children":[1,3,-1,-1,-1],"loss_changes":[1.63906355200000000e+09,9.69031680000000000e+07,0.00000000000000000e+00,0.00000000000000000e+00,0.00000000000000000e+00],"parents":[2147483647,0,0,1,1],"right_children":[2,4,-1,-1,-1],"split_conditions":[5.06887031250000000e+04,3.67031992187500000e+04,2.60882202148437500e+02,1.42420867919921875e+02,1.93302703857421875e+02],"split_indices":[0,0,0,0,0],"sum_hessian":[1.10000000000000000e+02,6.00000000000000000e+01,5.00000000000000000e+01,2.60000000000000000e+01,3.40000000000000000e+01],"tree_param":{"num_deleted":"0","num_feature":"15","num_nodes":"5","size_leaf_vector":"0"}},{"base_weights":[2.13358183593750000e+04,1.52772138671875000e+04,2.42803339843750000e+04,2.06671953125000000e+04,2.64550996093750000e+04],"default_left":[true,false,true,false,false],"id":81,"leaf_child_counts":[0,0,0,0,0],"left_children":[1,-1,3,-1,-1],"loss_changes":[1.60926515200000000e+09,0.00000000000000000e+00,2.68615680000000000e+07,0.00000000000000000e+00,0.00000000000000000e+00],"parents":[2147483647,0,0,2,2],"right_children":[2,-1,4,-1,-1],"split_conditions":[3.85000000000000000e+01,1.52772140502929688e+02,5.46657500000000000e+04,2.06671951293945312e+02,2.64550994873046875e+02],"split_indices":[12,0,0,0,0],"sum_hessian":[1.10000000000000000e+02,3.80000000000000000e+01,7.20000000000000000e+01,3.10000000000000000e+01,4.10000000000000000e+01],"tree_param":{"num_deleted":"0","num_feature":"15","num_nodes":"5","size_leaf_vector":"0"}},{"base_weights":[2.11280820312500000e+04,1.51283593750000000e+04,2.40439863281250000e+04,2.04669824218750000e+04,2.61968476562500000e+04],"default_left":[true,false,true,false,false],"id":82,"leaf_child_counts":[0,0,0,0,0],"left_children":[1,-1,3,-1,-1],"loss_changes":[1.57815603200000000e+09,0.00000000000000000e+00,2.59891200000000000e+07,0.00000000000000000e+00,0.00000000000000000e+00],"parents":[2147483647,0,0,2,2],"right_children":[2,-1,4,-1,-1],"split_conditions":[3.85000000000000000e+01,1.51283584594726562e+02,5.46657500000000000e+04,2.04669815063476562e+02,2.61968475341796875e+02],"split_indices":[12,0,0,0,0],"sum_hessian":[1.10000000000000000e+02,3.80000000000000000e+01,7.20000000000000000e+01,3.10000000000000000e+01,4.10000000000000000e+01],"tree_param":{"num_deleted":"0","num_feature":"15","num_nodes":"5","size_leaf_vector":"0"}},{"base_weights":[2.09223671875000000e+04,1.68888046875000000e+04,2.53365839843750000e+04,1.31656650390625000e+04,1.83838554687500000e+04],"default_left":[true,true,false,false,false],"id":83,"leaf_child_counts":[0,0,0,0,0],"left_children":[1,3,-1,-1,-1],"loss_changes":[1.54845593600000000e+09,9.75073280000000000e+07,0.00000000000000000e+00,0.00000000000000000e+00,0.00000000000000000e+00],"parents":[2147483647,0,0,1,1],"right_children":[2,4,-1,-1,-1],"split_conditions":[5.06887031250000000e+04,3.54807500000000000e+04,2.53365829467773438e+02,1.31656646728515625e+02,1.83838546752929688e+02],"split_indices":[0,0,0,0,0],"sum_hessian":[1.10000000000000000e+02,6.00000000000000000e+01,5.00000000000000000e+01,2.00000000000000000e+01,4.00000000000000000e+01],"tree_param":{"num_deleted":"0","num_feature":"15","num_nodes":"5","size_leaf_vector":"0"}},{"base_weights":[2.07182695312500000e+04,1.48285908203125000e+04,2.35809980468750000e+04,2.00710605468750000e+04,2.56937832031250000e+04],"default_left":[true,false,true,false,false],"id":84,"leaf_child_counts":[0,0,0,0,0],"left_children":[1,-1,3,-1,-1],"loss_changes":[1.52184832000000000e+09,0.00000000000000000e+00,2.56491520000000000e+07,0.00000000000000000e+00,0.00000000000000000e+00],"parents":[2147483647,0,0,2,2],"right_children":[2,-1,4,-1,-1],"split_conditions":[3.85000000000000000e+01,1.48285903930664062e+02,5.46657500000000000e+04,2.00710601806640625e+02,2.56937835693359375e+02],"split_indices":[12,0,0,0,0],"sum_hessian":[1.10000000000000000e+02,3.80000000000000000e+01,7.20000000000000000e+01,3.10000000000000000e+01,4.10000000000000000e+01],"tree_param":{"num_deleted":"0","num_feature":"15","num_nodes":"5","size_leaf_vector":"0"}},{"base_weights":[2.05165449218750000e+04,1.46841083984375000e+04,2.33514570312500000e+04,1.98766230468750000e+04,2.54429628906250000e+04],"default_left":[true,false,true,false,false],"id":85,"leaf_child_counts":[0,0,0,0,0],"left_children":[1,-1,3,-1,-1],"loss_changes":[1.49242675200000000e+09,0.00000000000000000e+00,2.48176640000000000e+07,0.00000000000000000e+00,0.00000000000000000e+00],"parents":[2147483647,0,0,2,2],"right_children":[2,-1,4,-1,-1],"split_conditions":[3.85000000000000000e+01,1.46841079711914062e+02,5.46657500000000000e+04,1.98766220092773438e+02,2.54429626464843750e+02],"split_indices":[12,0,0,0,0],"sum_hessian":[1.10000000000000000e+02,3.80000000000000000e+01,7.20000000000000000e+01,3.10000000000000000e+01,4.10000000000000000e+01],"tree_param":{"num_deleted":"0","num_feature":"15","num_nodes":"5","size_leaf_vector":"0"}},{"base_weights":[2.03167851562500000e+04,1.53254101562500000e+04,2.36133691406250000e+04],"default_left":[true,false,false],"id":86,"leaf_child_counts":[0,0,0],"left_children":[1,-1,-1],"loss_changes":[1.46456576000000000e+09,0.00000000000000000e+00,0.00000000000000000e+00],"parents":[2147483647,0,0],"right_children":[2,-1,-1],"split_conditions":[4.70486015625000000e+04,1.53254104614257812e+02,2.36133682250976562e+02],"split_indices":[0,0,0],"sum_hessian":[1.10000000000000000e+02,4.60000000000000000e+01,6.40000000000000000e+01],"tree_param":{"num_deleted":"0","num_feature":"15","num_nodes":"3","size_leaf_vector":"0"}},{"base_weights":[2.01171269531250000e+04,1.62274023437500000e+04,2.43750878906250000e+04,1.26132480468750000e+04,1.76827636718750000e+04],"default_left":[true,true,false,false,false],"id":87,"leaf_child_counts":[0,0,0,0,0],"left_children":[1,3,-1,-1,-1],"loss_changes":[1.44286924800000000e+09,9.78176000000000000e+07,0.00000000000000000e+00,0.00000000000000000e+00,0.00000000000000000e+00],"parents":[2147483647,0,0,1,1],"right_children":[2,4,-1,-1,-1],"split_conditions":[5.06887031250000000e+04,3.54807500000000000e+04,2.43750869750976562e+02,1.26132476806640625e+02,1.76827636718750000e+02],"split_indices":[0,0,0,0,0],"sum_hessian":[1.10000000000000000e+02,6.00000000000000000e+01,5.00000000000000000e+01,2.00000000000000000e+01,4.00000000000000000e+01],"tree_param":{"num_deleted":"0","num_feature":"15","num_nodes":"5","size_leaf_vector":"0"}},{"base_weights":[1.99208808593750000e+04,1.42454111328125000e+04,2.26800917968750000e+04,1.92859101562500000e+04,2.47261347656250000e+04],"default_left":[true,false,true,false,false],"id":88,"leaf_child_counts":[0,0,0,0,0],"left_children":[1,-1,3,-1,-1],"loss_changes":[1.41515161600000000e+09,0.00000000000000000e+00,3.00933120000000000e+07,0.00000000000000000e+00,0.00000000000000000e+00],"parents":[2147483647,0,0,2,2],"right_children":[2,-1,4,-1,-1],"split_conditions":[3.85000000000000000e+01,1.42454101562500000e+02,5.46657500000000000e+04,1.92859100341796875e+02,2.47261337280273438e+02],"split_indices":[12,0,0,0,0],"sum_hessian":[1.10000000000000000e+02,3.80000000000000000e+01,7.20000000000000000e+01,3.10000000000000000e+01,4.10000000000000000e+01],"tree_param":{"num_deleted":"0","num_feature":"15","num_nodes":"5","size_leaf_vector":"0"}},{"base_weights":[1.97269199218750000e+04,1.59117968750000000e+04,2.39033046875000000e+04,1.23574521484375000e+04,1.73442226562500000e+04],"default_left":[true,true,false,false,false],"id":89,"leaf_child_counts":[0,0,0,0,0],"left_children":[1,3,-1,-1,-1],"loss_changes":[1.38826547200000000e+09,9.62416640000000000e+07,0.00000000000000000e+00,0.00000000000000000e+00,0.00000000000000000e+00],"parents":[2147483647,0,0,1,1],"right_children":[2,4,-1,-1,-1],"split_conditions":[5.06887031250000000e+04,3.54807500000000000e+04,2.39033035278320312e+02,1.23574516296386719e+02,1.73442230224609375e+02],"split_indices":[0,0,0,0,0],"sum_hessian":[1.10000000000000000e+02,6.00000000000000000e+01,5.00000000000000000e+01,2.00000000000000000e+01,4.00000000000000000e+01],"tree_param":{"num_deleted":"0","num_feature":"15","num_nodes":"5","size_leaf_vector":"0"}},{"base_weights":[1.95344804687500000e+04,1.39631884765625000e+04,2.22433300781250000e+04,1.89126093750000000e+04,2.42514199218750000e+04],"default_left":[true,false,true,false,false],"id":90,"leaf_child_counts":[0,0,0,0,0],"left_children":[1,-1,3,-1,-1],"loss_changes":[1.36460288000000000e+09,0.00000000000000000e+00,2.95936000000000000e+07,0.00000000000000000e+00,0.00000000000000000e+00],"parents":[2147483647,0,0,2,2],"right_children":[2,-1,4,-1,-1],"split_conditions":[3.85000000000000000e+01,1.39631881713867188e+02,5.46657500000000000e+04,1.89126083374023438e+02,2.42514190673828125e+02],"split_indices":[12,0,0,0,0],"sum_hessian":[1.10000000000000000e+02,3.80000000000000000e+01,7.20000000000000000e+01,3.10000000000000000e+01,4.10000000000000000e+01],"tree_param":{"num_deleted":"0","num_feature":"15","num_nodes":"5","size_leaf_vector":"0"}},{"base_weights":[1.93442812500000000e+04,1.38271357421875000e+04,2.20268085937500000e+04,1.87293925781250000e+04,2.40146777343750000e+04],"default_left":[true,false,true,false,false],"id":91,"leaf_child_counts":[0,0,0,0,0],"left_children":[1,-1,3,-1,-1],"loss_changes":[1.33822054400000000e+09,0.00000000000000000e+00,2.87211520000000000e+07,0.00000000000000000e+00,0.00000000000000000e+00],"parents":[2147483647,0,0,2,2],"right_children":[2,-1,4,-1,-1],"split_conditions":[3.85000000000000000e+01,1.38271347045898438e+02,5.46657500000000000e+04,1.87293914794921875e+02,2.40146774291992188e+02],"split_indices":[12,0,0,0,0],"sum_hessian":[1.10000000000000000e+02,3.80000000000000000e+01,7.20000000000000000e+01,3.10000000000000000e+01,4.10000000000000000e+01],"tree_param":{"num_deleted":"0","num_feature":"15","num_nodes":"5","size_leaf_vector":"0"}},{"base_weights":[1.91559355468750000e+04,1.36924091796875000e+04,2.18123945312500000e+04,1.85479511718750000e+04,2.37802480468750000e+04],"default_left":[true,false,true,false,false],"id":92,"leaf_child_counts":[0,0,0,0,0],"left_children":[1,-1,3,-1,-1],"loss_changes":[1.31235020800000000e+09,0.00000000000000000e+00,2.78691840000000000e+07,0.00000000000000000e+00,0.00000000000000000e+00],"parents":[2147483647,0,0,2,2],"right_children":[2,-1,4,-1,-1],"split_conditions":[3.85000000000000000e+01,1.36924087524414062e+02,5.46657500000000000e+04,1.85479507446289062e+02,2.37802474975585938e+02],"split_indices":[12,0,0,0,0],"sum_hessian":[1.10000000000000000e+02,3.80000000000000000e+01,7.20000000000000000e+01,3.10000000000000000e+01,4.10000000000000000e+01],"tree_param":{"num_deleted":"0","num_feature":"15","num_nodes":"5","size_leaf_vector":"0"}},{"base_weights":[1.89694238281250000e+04,1.52964785156250000e+04,2.29906035156250000e+04,1.18446875000000000e+04,1.66913847656250000e+04],"default_left":[true,true,false,false,false],"id":93,"leaf_child_counts":[0,0,0,0,0],"left_children":[1,3,-1,-1,-1],"loss_changes":[1.28774553600000000e+09,9.60061440000000000e+07,0.00000000000000000e+00,0.00000000000000000e+00,0.00000000000000000e+00],"parents":[2147483647,0,0,1,1],"right_children":[2,4,-1,-1,-1],"split_conditions":[5.06887031250000000e+04,3.54807500000000000e+04,2.29906036376953125e+02,1.18446868896484375e+02,1.66913848876953125e+02],"split_indices":[0,0,0,0,0],"sum_hessian":[1.10000000000000000e+02,6.00000000000000000e+01,5.00000000000000000e+01,2.00000000000000000e+01,4.00000000000000000e+01],"tree_param":{"num_deleted":"0","num_feature":"15","num_nodes":"5","size_leaf_vector":"0"}},{"base_weights":[1.87843710937500000e+04,1.34212167968750000e+04,2.13922968750000000e+04,1.81888535156250000e+04,2.33236757812500000e+04],"default_left":[true,false,true,false,false],"id":94,"leaf_child_counts":[0,0,0,0,0],"left_children":[1,-1,3,-1,-1],"loss_changes":[1.26541824000000000e+09,0.00000000000000000e+00,2.74247680000000000e+07,0.00000000000000000e+00,0.00000000000000000e+00],"parents":[2147483647,0,0,2,2],"right_children":[2,-1,4,-1,-1],"split_conditions":[3.85000000000000000e+01,1.34212158203125000e+02,5.46657500000000000e+04,1.81888534545898438e+02,2.33236755371093750e+02],"split_indices":[12,0,0,0,0],"sum_hessian":[1.10000000000000000e+02,3.80000000000000000e+01,7.20000000000000000e+01,3.10000000000000000e+01,4.10000000000000000e+01],"tree_param":{"num_deleted":"0","num_feature":"15","num_nodes":"5","size_leaf_vector":"0"}},{"base_weights":[1.86014746093750000e+04,1.32904453125000000e+04,2.11840605468750000e+04,1.80126484375000000e+04,2.30959921875000000e+04],"default_left":[true,false,true,false,false],"id":95,"leaf_child_counts":[0,0,0,0,0],"left_children":[1,-1,3,-1,-1],"loss_changes":[1.24095283200000000e+09,0.00000000000000000e+00,2.66178560000000000e+07,0.00000000000000000e+00,0.00000000000000000e+00],"parents":[2147483647,0,0,2,2],"right_children":[2,-1,4,-1,-1],"split_conditions":[3.85000000000000000e+01,1.32904449462890625e+02,5.46657500000000000e+04,1.80126480102539062e+02,2.30959915161132812e+02],"split_indices":[12,0,0,0,0],"sum_hessian":[1.10000000000000000e+02,3.80000000000000000e+01,7.20000000000000000e+01,3.10000000000000000e+01,4.10000000000000000e+01],"tree_param":{"num_deleted":"0","num_feature":"15","num_nodes":"5","size_leaf_vector":"0"}},{"base_weights":[1.84203613281250000e+04,1.41813583984375000e+04,2.16624726562500000e+04,1.04615605468750000e+04,1.51786171875000000e+04],"default_left":[true,true,false,false,false],"id":96,"leaf_child_counts":[0,0,0,0,0],"left_children":[1,3,-1,-1,-1],"loss_changes":[1.21830195200000000e+09,3.03984640000000000e+07,0.00000000000000000e+00,0.00000000000000000e+00,0.00000000000000000e+00],"parents":[2147483647,0,0,1,1],"right_children":[2,4,-1,-1,-1],"split_conditions":[4.82074492187500000e+04,3.32414531250000000e+04,2.16624725341796875e+02,1.04615600585937500e+02,1.51786163330078125e+02],"split_indices":[0,0,0,0,0],"sum_hessian":[1.10000000000000000e+02,5.00000000000000000e+01,6.00000000000000000e+01,1.30000000000000000e+01,3.70000000000000000e+01],"tree_param":{"num_deleted":"0","num_feature":"15","num_nodes":"5","size_leaf_vector":"0"}},{"base_weights":[1.82404179687500000e+04,1.47013525390625000e+04,2.21157636718750000e+04,1.13621259765625000e+04,1.60531191406250000e+04],"default_left":[true,true,false,false,false],"id":97,"leaf_child_counts":[0,0,0,0,0],"left_children":[1,3,-1,-1,-1],"loss_changes":[1.19724441600000000e+09,9.29464320000000000e+07,0.00000000000000000e+00,0.00000000000000000e+00,0.00000000000000000e+00],"parents":[2147483647,0,0,1,1],"right_children":[2,4,-1,-1,-1],"split_conditions":[5.06887031250000000e+04,3.54807500000000000e+04,2.21157638549804688e+02,1.13621253967285156e+02,1.60531188964843750e+02],"split_indices":[0,0,0,0,0],"sum_hessian":[1.10000000000000000e+02,6.00000000000000000e+01,5.00000000000000000e+01,2.00000000000000000e+01,4.00000000000000000e+01],"tree_param":{"num_deleted":"0","num_feature":"15","num_nodes":"5","size_leaf_vector":"0"}},{"base_weights":[1.80624765625000000e+04,1.28964189453125000e+04,2.05749960937500000e+04,1.74800449218750000e+04,2.24431718750000000e+04],"default_left":[true,false,true,false,false],"id":98,"leaf_child_counts":[0,0,0,0,0],"left_children":[1,-1,3,-1,-1],"loss_changes":[1.17541683200000000e+09,0.00000000000000000e+00,2.97717760000000000e+07,0.00000000000000000e+00,0.00000000000000000e+00],"parents":[2147483647,0,0,2,2],"right_children":[2,-1,4,-1,-1],"split_conditions":[3.85000000000000000e+01,1.28964187622070312e+02,5.46657500000000000e+04,1.74800445556640625e+02,2.24431716918945312e+02],"split_indices":[12,0,0,0,0],"sum_hessian":[1.10000000000000000e+02,3.80000000000000000e+01,7.20000000000000000e+01,3.10000000000000000e+01,4.10000000000000000e+01],"tree_param":{"num_deleted":"0","num_feature":"15","num_nodes":"5","size_leaf_vector":"0"}},{"base_weights":[1.78866093750000000e+04,1.27707617187500000e+04,2.03747128906250000e+04,1.73107070312500000e+04,2.22240820312500000e+04],"default_left":[true,false,true,false,false],"id":99,"leaf_child_counts":[0,0,0,0,0],"left_children":[1,-1,3,-1,-1],"loss_changes":[1.15269222400000000e+09,0.00000000000000000e+00,2.89382400000000000e+07,0.00000000000000000e+00,0.00000000000000000e+00],"parents":[2147483647,0,0,2,2],"right_children":[2,-1,4,-1,-1],"split_conditions":[3.85000000000000000e+01,1.27707611083984375e+02,5.46657500000000000e+04,1.73107070922851562e+02,2.22240814208984375e+02],"split_indices":[12,0,0,0,0],"sum_hessian":[1.10000000000000000e+02,3.80000000000000000e+01,7.20000000000000000e+01,3.10000000000000000e+01,4.10000000000000000e+01],"tree_param":{"num_deleted":"0","num_feature":"15","num_nodes":"5","size_leaf_vector":"0"}},{"base_weights":[1.77124570312500000e+04,1.39015224609375000e+04,2.10789277343750000e+04,1.00205742187500000e+04,1.48641835937500000e+04],"default_left":[true,true,false,false,false],"id":100,"leaf_child_counts":[0,0,0,0,0],"left_children":[1,3,-1,-1,-1],"loss_changes":[1.13103667200000000e+09,5.65340160000000000e+07,0.00000000000000000e+00,0.00000000000000000e+00,0.00000000000000000e+00],"parents":[2147483647,0,0,1,1],"right_children":[2,4,-1,-1,-1],"split_conditions":[4.88240507812500000e+04,3.32414531250000000e+04,2.10789276123046875e+02,1.00205741882324219e+02,1.48641830444335938e+02],"split_indices":[0,0,0,0,0],"sum_hessian":[1.10000000000000000e+02,5.40000000000000000e+01,5.60000000000000000e+01,1.30000000000000000e+01,4.10000000000000000e+01],"tree_param":{"num_deleted":"0","num_feature":"15","num_nodes":"5","size_leaf_vector":"0"}},{"base_weights":[1.75394726562500000e+04,1.25176435546875000e+04,1.99820996093750000e+04,1.69698808593750000e+04,2.18013613281250000e+04],"default_left":[true,false,true,false,false],"id":101,"leaf_child_counts":[0,0,0,0,0],"left_children":[1,-1,3,-1,-1],"loss_changes":[1.11144755200000000e+09,0.00000000000000000e+00,3.00748800000000000e+07,0.00000000000000000e+00,0.00000000000000000e+00],"parents":[2147483647,0,0,2,2],"right_children":[2,-1,4,-1,-1],"split_conditions":[3.85000000000000000e+01,1.25176429748535156e+02,5.46657500000000000e+04,1.69698806762695312e+02,2.18013610839843750e+02],"split_indices":[12,0,0,0,0],"sum_hessian":[1.10000000000000000e+02,3.80000000000000000e+01,7.20000000000000000e+01,3.10000000000000000e+01,4.10000000000000000e+01],"tree_param":{"num_deleted":"0","num_feature":"15","num_nodes":"5","size_leaf_vector":"0"}},{"base_weights":[1.73686992187500000e+04,1.39922871093750000e+04,2.10665898437500000e+04,1.13296845703125000e+04,1.56465156250000000e+04],"default_left":[true,true,false,false,false],"id":102,"leaf_child_counts":[0,0,0,0,0],"left_children":[1,3,-1,-1,-1],"loss_changes":[1.09113139200000000e+09,9.14073600000000000e+07,0.00000000000000000e+00,0.00000000000000000e+00,0.00000000000000000e+00],"parents":[2147483647,0,0,1,1],"right_children":[2,4,-1,-1,-1],"split_conditions":[5.06887031250000000e+04,3.67031992187500000e+04,2.10665893554687500e+02,1.13296844482421875e+02,1.56465148925781250e+02],"split_indices":[0,0,0,0,0],"sum_hessian":[1.10000000000000000e+02,6.00000000000000000e+01,5.00000000000000000e+01,2.60000000000000000e+01,3.40000000000000000e+01],"tree_param":{"num_deleted":"0","num_feature":"15","num_nodes":"5","size_leaf_vector":"0"}},{"base_weights":[1.71993417968750000e+04,1.22720029296875000e+04,1.95961464843750000e+04,1.66386660156250000e+04,2.13828906250000000e+04],"default_left":[true,false,true,false,false],"id":103,"leaf_child_counts":[0,0,0,0,0],"left_children":[1,-1,3,-1,-1],"loss_changes":[1.07041177600000000e+09,0.00000000000000000e+00,2.99704320000000000e+07,0.00000000000000000e+00,0.00000000000000000e+00],"parents":[2147483647,0,0,2,2],"right_children":[2,-1,4,-1,-1],"split_conditions":[3.85000000000000000e+01,1.22720024108886719e+02,5.46657500000000000e+04,1.66386657714843750e+02,2.13828903198242188e+02],"split_indices":[12,0,0,0,0],"sum_hessian":[1.10000000000000000e+02,3.80000000000000000e+01,7.20000000000000000e+01,3.10000000000000000e+01,4.10000000000000000e+01],"tree_param":{"num_deleted":"0","num_feature":"15","num_nodes":"5","size_leaf_vector":"0"}},{"base_weights":[1.70318789062500000e+04,1.21518271484375000e+04,1.94057167968750000e+04,1.64782128906250000e+04,2.11741542968750000e+04],"default_left":[true,false,true,false,false],"id":104,"leaf_child_counts":[0,0,0,0,0],"left_children":[1,-1,3,-1,-1],"loss_changes":[1.05005670400000000e+09,0.00000000000000000e+00,2.90160640000000000e+07,0.00000000000000000e+00,0.00000000000000000e+00],"parents":[2147483647,0,0,2,2],"right_children":[2,-1,4,-1,-1],"split_conditions":[4.03756015625000000e+04,1.21518272399902344e+02,5.46657500000000000e+04,1.64782119750976562e+02,2.11741531372070312e+02],"split_indices":[0,0,0,0,0],"sum_hessian":[1.10000000000000000e+02,3.80000000000000000e+01,7.20000000000000000e+01,3.10000000000000000e+01,4.10000000000000000e+01],"tree_param":{"num_deleted":"0","num_feature":"15","num_nodes":"5","size_leaf_vector":"0"}},{"base_weights":[1.68660468750000000e+04,1.35852011718750000e+04,2.04594902343750000e+04,9.47929492187500000e+03,1.44997314453125000e+04],"default_left":[true,true,false,false,false],"id":105,"leaf_child_counts":[0,0,0,0,0],"left_children":[1,3,-1,-1,-1],"loss_changes":[1.03069286400000000e+09,9.16060160000000000e+07,0.00000000000000000e+00,0.00000000000000000e+00,0.00000000000000000e+00],"parents":[2147483647,0,0,1,1],"right_children":[2,4,-1,-1,-1],"split_conditions":[5.06887031250000000e+04,3.32414531250000000e+04,2.04594894409179688e+02,9.47929458618164062e+01,1.44997314453125000e+02],"split_indices":[0,0,0,0,0],"sum_hessian":[1.10000000000000000e+02,6.00000000000000000e+01,5.00000000000000000e+01,1.30000000000000000e+01,4.70000000000000000e+01],"tree_param":{"num_deleted":"0","num_feature":"15","num_nodes":"5","size_leaf_vector":"0"}},{"base_weights":[1.67013906250000000e+04,1.19083730468750000e+04,1.90332578125000000e+04,1.61619707031250000e+04,2.07677304687500000e+04],"default_left":[true,false,true,false,false],"id":106,"leaf_child_counts":[0,0,0,0,0],"left_children":[1,-1,3,-1,-1],"loss_changes":[1.01395660800000000e+09,0.00000000000000000e+00,2.79040000000000000e+07,0.00000000000000000e+00,0.00000000000000000e+00],"parents":[2147483647,0,0,2,2],"right_children":[2,-1,4,-1,-1],"split_conditions":[3.85000000000000000e+01,1.19083724975585938e+02,5.46657500000000000e+04,1.61619705200195312e+02,2.07677307128906250e+02],"split_indices":[12,0,0,0,0],"sum_hessian":[1.10000000000000000e+02,3.80000000000000000e+01,7.20000000000000000e+01,3.10000000000000000e+01,4.10000000000000000e+01],"tree_param":{"num_deleted":"0","num_feature":"15","num_nodes":"5","size_leaf_vector":"0"}},{"base_weights":[1.65387773437500000e+04,1.17917587890625000e+04,1.88482949218750000e+04,1.60061123046875000e+04,2.05650000000000000e+04],"default_left":[true,false,true,false,false],"id":107,"leaf_child_counts":[0,0,0,0,0],"left_children":[1,-1,3,-1,-1],"loss_changes":[9.94674688000000000e+08,0.00000000000000000e+00,2.70131200000000000e+07,0.00000000000000000e+00,0.00000000000000000e+00],"parents":[2147483647,0,0,2,2],"right_children":[2,-1,4,-1,-1],"split_conditions":[4.03756015625000000e+04,1.17917587280273438e+02,5.46657500000000000e+04,1.60061126708984375e+02,2.05649993896484375e+02],"split_indices":[0,0,0,0,0],"sum_hessian":[1.10000000000000000e+02,3.80000000000000000e+01,7.20000000000000000e+01,3.10000000000000000e+01,4.10000000000000000e+01],"tree_param":{"num_deleted":"0","num_feature":"15","num_nodes":"5","size_leaf_vector":"0"}},{"base_weights":[1.63777460937500000e+04,1.14904414062500000e+04,1.85704472656250000e+04,1.58083847656250000e+04,2.03642480468750000e+04],"default_left":[true,false,true,false,false],"id":108,"leaf_child_counts":[0,0,0,0,0],"left_children":[1,-1,3,-1,-1],"loss_changes":[9.76138240000000000e+08,0.00000000000000000e+00,4.96680960000000000e+07,0.00000000000000000e+00,0.00000000000000000e+00],"parents":[2147483647,0,0,2,2],"right_children":[2,-1,4,-1,-1],"split_conditions":[3.93583984375000000e+04,1.14904411315917969e+02,5.46657500000000000e+04,1.58083847045898438e+02,2.03642471313476562e+02],"split_indices":[0,0,0,0,0],"sum_hessian":[1.10000000000000000e+02,3.60000000000000000e+01,7.40000000000000000e+01,3.30000000000000000e+01,4.10000000000000000e+01],"tree_param":{"num_deleted":"0","num_feature":"15","num_nodes":"5","size_leaf_vector":"0"}},{"base_weights":[1.62182636718750000e+04,1.15610878906250000e+04,1.84841757812500000e+04,1.56998652343750000e+04,2.01654550781250000e+04],"default_left":[true,false,true,false,false],"id":109,"leaf_child_counts":[0,0,0,0,0],"left_children":[1,-1,3,-1,-1],"loss_changes":[9.57657088000000000e+08,0.00000000000000000e+00,2.51330560000000000e+07,0.00000000000000000e+00,0.00000000000000000e+00],"parents":[2147483647,0,0,2,2],"right_children":[2,-1,4,-1,-1],"split_conditions":[3.85000000000000000e+01,1.15610877990722656e+02,5.46657500000000000e+04,1.56998641967773438e+02,2.01654541015625000e+02],"split_indices":[12,0,0,0,0],"sum_hessian":[1.10000000000000000e+02,3.80000000000000000e+01,7.20000000000000000e+01,3.10000000000000000e+01,4.10000000000000000e+01],"tree_param":{"num_deleted":"0","num_feature":"15","num_nodes":"5","size_leaf_vector":"0"}},{"base_weights":[1.60603525390625000e+04,1.12650371093750000e+04,1.82119042968750000e+04,1.55062216796875000e+04,1.99686015625000000e+04],"default_left":[true,false,true,false,false],"id":110,"leaf_child_counts":[0,0,0,0,0],"left_children":[1,-1,3,-1,-1],"loss_changes":[9.40068864000000000e+08,0.00000000000000000e+00,4.68418560000000000e+07,0.00000000000000000e+00,0.00000000000000000e+00],"parents":[2147483647,0,0,2,2],"right_children":[2,-1,4,-1,-1],"split_conditions":[3.93583984375000000e+04,1.12650367736816406e+02,5.46657500000000000e+04,1.55062210083007812e+02,1.99686004638671875e+02],"split_indices":[0,0,0,0,0],"sum_hessian":[1.10000000000000000e+02,3.60000000000000000e+01,7.40000000000000000e+01,3.30000000000000000e+01,4.10000000000000000e+01],"tree_param":{"num_deleted":"0","num_feature":"15","num_nodes":"5","size_leaf_vector":"0"}},{"base_weights":[1.59039589843750000e+04,1.19558378906250000e+04,1.85140781250000000e+04,8.85254589843750000e+03,1.28820214843750000e+04],"default_left":[true,true,false,false,false],"id":111,"leaf_child_counts":[0,0,0,0,0],"left_children":[1,3,-1,-1,-1],"loss_changes":[9.22511360000000000e+08,2.10498560000000000e+07,0.00000000000000000e+00,0.00000000000000000e+00,0.00000000000000000e+00],"parents":[2147483647,0,0,1,1],"right_children":[2,4,-1,-1,-1],"split_conditions":[4.70486015625000000e+04,3.32414531250000000e+04,1.85140777587890625e+02,8.85254592895507812e+01,1.28820205688476562e+02],"split_indices":[0,0,0,0,0],"sum_hessian":[1.10000000000000000e+02,4.60000000000000000e+01,6.40000000000000000e+01,1.30000000000000000e+01,3.30000000000000000e+01],"tree_param":{"num_deleted":"0","num_feature":"15","num_nodes":"5","size_leaf_vector":"0"}},{"base_weights":[1.57485458984375000e+04,1.26724335937500000e+04,1.91190234375000000e+04,8.93260839843750000e+03,1.35963681640625000e+04],"default_left":[true,true,false,false,false],"id":112,"leaf_child_counts":[0,0,0,0,0],"left_children":[1,3,-1,-1,-1],"loss_changes":[9.08560384000000000e+08,8.93255680000000000e+07,0.00000000000000000e+00,0.00000000000000000e+00,0.00000000000000000e+00],"parents":[2147483647,0,0,1,1],"right_children":[2,4,-1,-1,-1],"split_conditions":[5.06887031250000000e+04,3.34452500000000000e+04,1.91190231323242188e+02,8.93260803222656250e+01,1.35963684082031250e+02],"split_indices":[0,0,0,0,0],"sum_hessian":[1.10000000000000000e+02,6.00000000000000000e+01,5.00000000000000000e+01,1.40000000000000000e+01,4.60000000000000000e+01],"tree_param":{"num_deleted":"0","num_feature":"15","num_nodes":"5","size_leaf_vector":"0"}},{"base_weights":[1.55948115234375000e+04,1.09296083984375000e+04,1.76883808593750000e+04,3.20755664062500000e+03,1.10550107421875000e+04,1.50460048828125000e+04,1.94062968750000000e+04],"default_left":[true,true,true,false,false,false,false],"id":113,"leaf_child_counts":[0,0,0,0,0,0,0],"left_children":[1,3,5,-1,-1,-1,-1],"loss_changes":[8.90802176000000000e+08,3.70176000000000000e+05,4.84659200000000000e+07,0.00000000000000000e+00,0.00000000000000000e+00,0.00000000000000000e+00,0.00000000000000000e+00],"parents":[2147483647,0,0,1,1,2,2],"right_children":[2,4,6,-1,-1,-1,-1],"split_conditions":[3.93583984375000000e+04,2.91546503906250000e+04,5.46657500000000000e+04,3.20755653381347656e+01,1.10550102233886719e+02,1.50460052490234375e+02,1.94062957763671875e+02],"split_indices":[0,0,0,0,0,0,0],"sum_hessian":[1.10000000000000000e+02,3.60000000000000000e+01,7.40000000000000000e+01,1.00000000000000000e+00,3.50000000000000000e+01,3.30000000000000000e+01,4.10000000000000000e+01],"tree_param":{"num_deleted":"0","num_feature":"15","num_nodes":"7","size_leaf_vector":"0"}},{"base_weights":[1.54432519531250000e+04,1.24262480468750000e+04,1.87490175781250000e+04,9.48091894531250000e+03,1.36317519531250000e+04],"default_left":[true,true,false,false,false],"id":114,"leaf_child_counts":[0,0,0,0,0],"left_children":[1,3,-1,-1,-1],"loss_changes":[8.74078208000000000e+08,8.73451520000000000e+07,0.00000000000000000e+00,0.00000000000000000e+00,0.00000000000000000e+00],"parents":[2147483647,0,0,1,1],"right_children":[2,4,-1,-1,-1],"split_conditions":[5.06887031250000000e+04,3.54807500000000000e+04,1.87490173339843750e+02,9.48091888427734375e+01,1.36317520141601562e+02],"split_indices":[0,0,0,0,0],"sum_hessian":[1.10000000000000000e+02,6.00000000000000000e+01,5.00000000000000000e+01,2.00000000000000000e+01,4.00000000000000000e+01],"tree_param":{"num_deleted":"0","num_feature":"15","num_nodes":"5","size_leaf_vector":"0"}},{"base_weights":[1.52925917968750000e+04,1.08872851562500000e+04,1.74366250000000000e+04,3.14411425781250000e+03,1.10083134765625000e+04,1.47953974609375000e+04,1.90338300781250000e+04],"default_left":[true,true,true,false,false,false,false],"id":115,"leaf_child_counts":[0,0,0,0,0,0,0],"left_children":[1,3,5,-1,-1,-1,-1],"loss_changes":[8.58570752000000000e+08,1.93689600000000000e+06,2.63434240000000000e+07,0.00000000000000000e+00,0.00000000000000000e+00,0.00000000000000000e+00,0.00000000000000000e+00],"parents":[2147483647,0,0,1,1,2,2],"right_children":[2,4,6,-1,-1,-1,-1],"split_conditions":[3.85000000000000000e+01,2.91546503906250000e+04,5.46657500000000000e+04,3.14411411285400391e+01,1.10083129882812500e+02,1.47953964233398438e+02,1.90338302612304688e+02],"split_indices":[12,0,0,0,0,0,0],"sum_hessian":[1.10000000000000000e+02,3.80000000000000000e+01,7.20000000000000000e+01,1.00000000000000000e+00,3.70000000000000000e+01,3.10000000000000000e+01,4.10000000000000000e+01],"tree_param":{"num_deleted":"0","num_feature":"15","num_nodes":"7","size_leaf_vector":"0"}},{"base_weights":[1.51439882812500000e+04,1.06079628906250000e+04,1.71798398437500000e+04,1.46138564453125000e+04,1.88480214843750000e+04],"default_left":[true,false,true,false,false],"id":116,"leaf_child_counts":[0,0,0,0,0],"left_children":[1,-1,3,-1,-1],"loss_changes":[8.42807296000000000e+08,0.00000000000000000e+00,4.55966720000000000e+07,0.00000000000000000e+00,0.00000000000000000e+00],"parents":[2147483647,0,0,2,2],"right_children":[2,-1,4,-1,-1],"split_conditions":[3.93583984375000000e+04,1.06079627990722656e+02,5.46657500000000000e+04,1.46138565063476562e+02,1.88480209350585938e+02],"split_indices":[0,0,0,0,0],"sum_hessian":[1.10000000000000000e+02,3.60000000000000000e+01,7.40000000000000000e+01,3.30000000000000000e+01,4.10000000000000000e+01],"tree_param":{"num_deleted":"0","num_feature":"15","num_nodes":"5","size_leaf_vector":"0"}},{"base_weights":[1.49965185546875000e+04,1.05047500000000000e+04,1.70125039062500000e+04,3.07535351562500000e+03,1.06256962890625000e+04,1.43398671875000000e+04,1.85695917968750000e+04],"default_left":[true,true,true,false,false,false,false],"id":117,"leaf_child_counts":[0,0,0,0,0,0,0],"left_children":[1,3,5,-1,-1,-1,-1],"loss_changes":[8.26431488000000000e+08,5.68576000000000000e+05,4.58280960000000000e+07,0.00000000000000000e+00,0.00000000000000000e+00,0.00000000000000000e+00,0.00000000000000000e+00],"parents":[2147483647,0,0,1,1,2,2],"right_children":[2,4,6,-1,-1,-1,-1],"split_conditions":[3.93583984375000000e+04,2.91546503906250000e+04,4.88783828125000000e+04,3.07535343170166016e+01,1.06256958007812500e+02,1.43398666381835938e+02,1.85695907592773438e+02],"split_indices":[0,0,3,0,0,0,0],"sum_hessian":[1.10000000000000000e+02,3.60000000000000000e+01,7.40000000000000000e+01,1.00000000000000000e+00,3.50000000000000000e+01,3.10000000000000000e+01,4.30000000000000000e+01],"tree_param":{"num_deleted":"0","num_feature":"15","num_nodes":"7","size_leaf_vector":"0"}},{"base_weights":[1.48507529296875000e+04,1.16323554687500000e+04,1.76956835937500000e+04,8.21393066406250000e+03,1.24948691406250000e+04],"default_left":[true,true,false,false,false],"id":118,"leaf_child_counts":[0,0,0,0,0],"left_children":[1,3,-1,-1,-1],"loss_changes":[8.10485760000000000e+08,5.95317760000000000e+07,0.00000000000000000e+00,0.00000000000000000e+00,0.00000000000000000e+00],"parents":[2147483647,0,0,1,1],"right_children":[2,4,-1,-1,-1],"split_conditions":[4.88240507812500000e+04,3.32414531250000000e+04,1.76956832885742188e+02,8.21393051147460938e+01,1.24948692321777344e+02],"split_indices":[0,0,0,0,0],"sum_hessian":[1.10000000000000000e+02,5.40000000000000000e+01,5.60000000000000000e+01,1.30000000000000000e+01,4.10000000000000000e+01],"tree_param":{"num_deleted":"0","num_feature":"15","num_nodes":"5","size_leaf_vector":"0"}},{"base_weights":[1.47057050781250000e+04,1.04636699218750000e+04,1.67705488281250000e+04,3.01890722656250000e+03,1.05801396484375000e+04,1.42219609375000000e+04,1.83130332031250000e+04],"default_left":[true,true,true,false,false,false,false],"id":119,"leaf_child_counts":[0,0,0,0,0,0,0],"left_children":[1,3,5,-1,-1,-1,-1],"loss_changes":[7.96784640000000000e+08,1.87622400000000000e+06,2.65256960000000000e+07,0.00000000000000000e+00,0.00000000000000000e+00,0.00000000000000000e+00,0.00000000000000000e+00],"parents":[2147483647,0,0,1,1,2,2],"right_children":[2,4,6,-1,-1,-1,-1],"split_conditions":[3.85000000000000000e+01,2.91546503906250000e+04,5.46657500000000000e+04,3.01890716552734375e+01,1.05801391601562500e+02,1.42219604492187500e+02,1.83130325317382812e+02],"split_indices":[12,0,0,0,0,0,0],"sum_hessian":[1.10000000000000000e+02,3.80000000000000000e+01,7.20000000000000000e+01,1.00000000000000000e+00,3.70000000000000000e+01,3.10000000000000000e+01,4.10000000000000000e+01],"tree_param":{"num_deleted":"0","num_feature":"15","num_nodes":"7","size_leaf_vector":"0"}},{"base_weights":[1.45628046875000000e+04,1.01949921875000000e+04,1.65234218750000000e+04,1.39205820312500000e+04,1.80408632812500000e+04],"default_left":[true,false,true,false,false],"id":120,"leaf_child_counts":[0,0,0,0,0],"left_children":[1,-1,3,-1,-1],"loss_changes":[7.82104576000000000e+08,0.00000000000000000e+00,4.50846720000000000e+07,0.00000000000000000e+00,0.00000000000000000e+00],"parents":[2147483647,0,0,2,2],"right_children":[2,-1,4,-1,-1],"split_conditions":[3.93583984375000000e+04,1.01949920654296875e+02,4.88783828125000000e+04,1.39205810546875000e+02,1.80408630371093750e+02],"split_indices":[0,0,3,0,0],"sum_hessian":[1.10000000000000000e+02,3.60000000000000000e+01,7.40000000000000000e+01,3.10000000000000000e+01,4.30000000000000000e+01],"tree_param":{"num_deleted":"0","num_feature":"15","num_nodes":"5","size_leaf_vector":"0"}},{"base_weights":[1.44209746093750000e+04,1.00957988281250000e+04,1.63624482421875000e+04,2.95283789062500000e+03,1.02121904296875000e+04,1.39064033203125000e+04,1.79610917968750000e+04],"default_left":[true,true,true,false,false,false,false],"id":121,"leaf_child_counts":[0,0,0,0,0,0,0],"left_children":[1,3,5,-1,-1,-1,-1],"loss_changes":[7.66898176000000000e+08,6.06208000000000000e+05,4.47016960000000000e+07,0.00000000000000000e+00,0.00000000000000000e+00,0.00000000000000000e+00,0.00000000000000000e+00],"parents":[2147483647,0,0,1,1,2,2],"right_children":[2,4,6,-1,-1,-1,-1],"split_conditions":[3.93583984375000000e+04,2.91546503906250000e+04,5.46657500000000000e+04,2.95283775329589844e+01,1.02121902465820312e+02,1.39064025878906250e+02,1.79610916137695312e+02],"split_indices":[0,0,0,0,0,0,0],"sum_hessian":[1.10000000000000000e+02,3.60000000000000000e+01,7.40000000000000000e+01,1.00000000000000000e+00,3.50000000000000000e+01,3.30000000000000000e+01,4.10000000000000000e+01],"tree_param":{"num_deleted":"0","num_feature":"15","num_nodes":"7","size_leaf_vector":"0"}},{"base_weights":[1.42808222656250000e+04,1.14835527343750000e+04,1.73465605468750000e+04,7.86050781250000000e+03,1.23010332031250000e+04],"default_left":[true,true,false,false,false],"id":122,"leaf_child_counts":[0,0,0,0,0],"left_children":[1,3,-1,-1,-1],"loss_changes":[7.52703488000000000e+08,8.39751680000000000e+07,0.00000000000000000e+00,0.00000000000000000e+00,0.00000000000000000e+00],"parents":[2147483647,0,0,1,1],"right_children":[2,4,-1,-1,-1],"split_conditions":[5.06887031250000000e+04,3.32414531250000000e+04,1.73465606689453125e+02,7.86050796508789062e+01,1.23010330200195312e+02],"split_indices":[0,0,0,0,0],"sum_hessian":[1.10000000000000000e+02,6.00000000000000000e+01,5.00000000000000000e+01,1.30000000000000000e+01,4.70000000000000000e+01],"tree_param":{"num_deleted":"0","num_feature":"15","num_nodes":"5","size_leaf_vector":"0"}},{"base_weights":[1.41413935546875000e+04,9.89289843750000000e+03,1.60487656250000000e+04,2.89877050781250000e+03,1.00066582031250000e+04,1.35186416015625000e+04,1.75241113281250000e+04],"default_left":[true,true,true,false,false,false,false],"id":123,"leaf_child_counts":[0,0,0,0,0,0,0],"left_children":[1,3,5,-1,-1,-1,-1],"loss_changes":[7.40716544000000000e+08,4.31872000000000000e+05,4.30592000000000000e+07,0.00000000000000000e+00,0.00000000000000000e+00,0.00000000000000000e+00,0.00000000000000000e+00],"parents":[2147483647,0,0,1,1,2,2],"right_children":[2,4,6,-1,-1,-1,-1],"split_conditions":[3.65000000000000000e+01,2.91546503906250000e+04,4.88783828125000000e+04,2.89877052307128906e+01,1.00066581726074219e+02,1.35186416625976562e+02,1.75241104125976562e+02],"split_indices":[12,0,3,0,0,0,0],"sum_hessian":[1.10000000000000000e+02,3.60000000000000000e+01,7.40000000000000000e+01,1.00000000000000000e+00,3.50000000000000000e+01,3.10000000000000000e+01,4.30000000000000000e+01],"tree_param":{"num_deleted":"0","num_feature":"15","num_nodes":"7","size_leaf_vector":"0"}},{"base_weights":[1.40039384765625000e+04,9.79602734375000000e+03,1.58931220703125000e+04,2.88427636718750000e+03,9.90790136718750000e+03,1.35046787109375000e+04,1.74482167968750000e+04],"default_left":[true,true,true,false,false,false,false],"id":124,"leaf_child_counts":[0,0,0,0,0,0,0],"left_children":[1,3,5,-1,-1,-1,-1],"loss_changes":[7.26706176000000000e+08,3.30240000000000000e+04,4.29363200000000000e+07,0.00000000000000000e+00,0.00000000000000000e+00,0.00000000000000000e+00,0.00000000000000000e+00],"parents":[2147483647,0,0,1,1,2,2],"right_children":[2,4,6,-1,-1,-1,-1],"split_conditions":[3.93583984375000000e+04,2.91546503906250000e+04,5.46657500000000000e+04,2.88427639007568359e+01,9.90790100097656250e+01,1.35046783447265625e+02,1.74482162475585938e+02],"split_indices":[0,0,0,0,0,0,0],"sum_hessian":[1.10000000000000000e+02,3.60000000000000000e+01,7.40000000000000000e+01,1.00000000000000000e+00,3.50000000000000000e+01,3.30000000000000000e+01,4.10000000000000000e+01],"tree_param":{"num_deleted":"0","num_feature":"15","num_nodes":"7","size_leaf_vector":"0"}},{"base_weights":[1.38678408203125000e+04,9.70003906250000000e+03,1.57390517578125000e+04,1.33752207031250000e+04,1.72778906250000000e+04],"default_left":[true,false,true,false,false],"id":125,"leaf_child_counts":[0,0,0,0,0],"left_children":[1,-1,3,-1,-1],"loss_changes":[7.13000960000000000e+08,0.00000000000000000e+00,4.17198080000000000e+07,0.00000000000000000e+00,0.00000000000000000e+00],"parents":[2147483647,0,0,2,2],"right_children":[2,-1,4,-1,-1],"split_conditions":[3.65000000000000000e+01,9.70003890991210938e+01,5.46657500000000000e+04,1.33752197265625000e+02,1.72778900146484375e+02],"split_indices":[12,0,0,0,0],"sum_hessian":[1.10000000000000000e+02,3.60000000000000000e+01,7.40000000000000000e+01,3.30000000000000000e+01,4.10000000000000000e+01],"tree_param":{"num_deleted":"0","num_feature":"15",